svm_type c_svc
kernel_type linear
nr_class 6
total_sv 301
rho -3.1994537824964322 -1.6548690020467123 1.1028363947537654 -3.8273516756767512 4.2400356981877589 0.79567158904110569 0.99835783760203745 2.3896440296913823 2.2610485565351328 1.478229773653893 0.094439991525780573 0.91166371527544909 -1.189592846608319 -1.5944604050895708 4.5726930147030247
label 1 2 3 4 5 6
nr_sv 62 9 32 40 68 90
SV
0 0 0 0 0.50815709462097636 1:0.29921638 2:0.48885918 3:0.050361314 4:0.39597703 5:0.60640762 6:0.22292272 7:0.26737965 8:0.43817508 9:0.020642004 10:0.38285636 11:0.14297196 12:0.85943827 13:0.57307817 14:0.083490538 15:0.28793883 16:0.57616174 17:0.45871696 18:0.1234366 19:0.3355436 20:0.77293786 21:0.35100644 22:0.4825671 23:0.66841474 24:0.070009339 25:0.29792358 26:0.26423933 27:0.45296277 28:0.39579397 29:0.056001251 30:0.2359109 31:0.64750734 32:0.28194654 33:0.013800385 34:0.24905276 35:0.40234698 36:0.11745811 37:0.99076787 38:0.40825254 39:0.00013668828 40:0.85452821 41:0.011675689 42:0.34512837 43:0.14515751 44:0.0076819034 45:0.087645079 
0 0 0 0 10 1:0.28847555 2:0.57616839 3:0.048228356 4:0.45525182 5:0.63950959 6:0.21810992 7:0.27150197 8:0.63643724 9:0.025340644 10:0.56036435 11:0.15849866 12:0.88265567 13:0.47325024 14:0.063584361 15:0.25109914 16:0.57632263 17:0.41003857 18:0.15313727 19:0.32702258 20:0.71687942 21:0.39101882 22:0.52735864 23:0.63331175 24:0.099864277 25:0.40056066 26:0.31568431 27:0.45951551 28:0.58596666 29:0.061264371 30:0.24679187 31:0.62316233 32:0.27069055 33:0.018085186 34:0.20420769 35:0.37792381 36:0.13446457 37:0.99429144 38:0.3797906 39:0.00018732626 40:0.80040028 41:0.013671061 42:0.36581321 43:0.030150821 44:0.010479906 45:0.10237005 
0 0 0 0 10 1:0.27823302 2:0.67449052 3:0.032214981 4:0.43633683 5:0.67945773 6:0.17791014 7:0.29369677 8:0.40620293 9:0.019011837 10:0.5003329 11:0.13717746 12:0.82045247 13:0.51418762 14:0.067702017 15:0.25914716 16:0.56936224 17:0.380539 18:0.14430447 19:0.24219842 20:0.77227553 21:0.37955972 22:0.54833001 23:0.62957982 24:0.089669371 25:0.19537319 26:0.29911171 27:0.41641514 28:0.72954581 29:0.03391157 30:0.18336593 31:0.62077864 32:0.40636 33:0.013467878 34:0.2584945 35:0.41514945 36:0.11603423 37:0.99365151 38:0.3112948 39:0.00022389166 40:0.83670482 41:0.014947372 42:0.36226818 43:0.036052423 44:0.011867316 45:0.10893586 
0 0 0 0 9.1020069180537604 1:0.2830318 2:0.47611838 3:0.050634469 4:0.41910263 5:0.62176462 6:0.22353164 7:0.30009269 8:0.42711984 9:0.023660579 10:0.49419822 11:0.15312684 12:0.85002672 13:0.44789498 14:0.084581432 15:0.28982306 16:0.60570712 17:0.37545747 18:0.10972458 19:0.33864167 20:0.53729539 21:0.33090782 22:0.516834 23:0.51740514 24:0.075308474 25:0.38601453 26:0.27407516 27:0.48570637 28:0.67772464 29:0.037760894 30:0.19354629 31:0.6222963 32:0.41479184 33:0.018623063 34:0.14287665 35:0.33273489 36:0.13644978 37:0.99103823 38:0.2564575 39:0.00027828794 40:0.85301794 41:0.016666353 42:0.34572829 43:0.13064097 44:0.013175354 45:0.11478259 
0 0 0 0 10 1:0.30674742 2:0.44083345 3:0.049520842 4:0.43790366 5:0.59050681 6:0.22103868 7:0.26226272 8:0.39558758 9:0.02331504 10:0.54955434 11:0.1519986 12:0.86845459 13:0.51485052 14:0.076256157 15:0.27511867 16:0.58726565 17:0.40381305 18:0.12731313 19:0.24051514 20:0.65541218 21:0.35648341 22:0.59564855 23:0.58679919 24:0.092869589 25:0.32991419 26:0.30441093 27:0.45793049 28:0.65027607 29:0.04676424 30:0.21549598 31:0.62741211 32:0.2700058 33:0.022859718 34:0.25302244 35:0.39623284 36:0.15117802 37:0.99147078 38:0.1958366 39:0.00029628041 40:0.90733307 41:0.017197195 42:0.33412702 43:0.093526092 44:0.0086921459 45:0.093230297 
0 0 0 0 10 1:0.25815556 2:0.48368473 3:0.033568042 4:0.37997559 5:0.5338478 6:0.18164764 7:0.27432201 8:0.39539729 9:0.02435419 10:0.4292849 11:0.15536698 12:0.82169822 13:0.48638406 14:0.050513528 15:0.22365341 16:0.48574529 17:0.55418808 18:0.081163432 19:0.1952555 20:0.8127878 21:0.28452931 22:0.62547796 23:0.51168474 24:0.062475127 25:0.22702864 26:0.24958978 27:0.48528905 28:0.59457282 29:0.041550565 30:0.20307329 31:0.63371232 32:0.30275844 33:0.014493418 34:0.40159466 35:0.54901556 36:0.12037173 37:0.99031209 38:0.26964154 39:0.00020702973 40:0.88833539 41:0.014372881 42:0.33937486 43:0.13485721 44:0.010739324 45:0.10362934 
0.044890080913014697 0 0 0 0 1:0.24033681 2:0.44514755 3:0.081699863 4:0.68607371 5:0.34748985 6:0.28445809 7:0.21080008 8:0.35509168 9:0.035716391 10:0.089896662 11:0.18832316 12:0.76209336 13:0.25613591 14:0.23445331 15:0.48347153 16:0.43722568 17:0.83386595 18:0.089245909 19:0.38562427 20:0.27500098 21:0.29838489 22:0.4359938 23:0.63916637 24:0.057149616 25:0.56560622 26:0.23869417 27:0.47022138 28:0.75181208 29:0.048882379 30:0.2203438 31:0.58860041 32:0.2380058 33:0.26240824 34:0.91868732 35:0.12664727 36:0.51224862 37:0.79462103 38:0.48469618 39:0.16486392 40:0.055134789 41:0.40602495 42:0.66172784 43:0.59967888 44:0.053092288 45:0.23041647 
0 0 0 0 0.98390304990944644 1:0.34296343 2:0.41517636 3:0.078556024 4:0.51109225 5:0.62538885 6:0.2788941 7:0.26749873 8:0.40977199 9:0.031621443 10:0.43041289 11:0.17715049 12:0.73484796 13:0.5719973 14:0.087004572 15:0.29396539 16:0.56033141 17:0.4064179 18:0.093051922 19:0.31529241 20:0.19840861 21:0.30469168 22:0.41999512 23:0.58562356 24:0.074535484 25:0.63652402 26:0.27266246 27:0.43126613 28:0.6806929 29:0.03710198 30:0.19184178 31:0.67708852 32:0.31945122 33:0.019719475 34:0.59615072 35:0.31601633 36:0.14040955 37:0.97510288 38:0.41411728 39:0.0022904104 40:0.083849966 41:0.047843111 42:0.40236531 43:0.20434528 44:0.023849652 45:0.15443204 
0 0 0 0 9.6959774419104825 1:0.25728276 2:0.42835377 3:0.086782838 4:0.59246135 5:0.70834329 6:0.29323219 7:0.29363279 8:0.51695014 9:0.03314034 10:0.36366925 11:0.18137461 12:0.84050849 13:0.54298259 14:0.096462024 15:0.30960541 16:0.56738411 17:0.35641978 18:0.10735894 19:0.40754346 20:0.18617751 21:0.32731573 22:0.38269312 23:0.59882755 24:0.11538246 25:0.42470711 26:0.33936251 27:0.47868817 28:0.60779452 29:0.068814643 30:0.2616151 31:0.69590609 32:0.31498479 33:0.022570207 34:0.31419461 35:0.66786134 36:0.15021754 37:0.97327733 38:0.19874012 39:0.00067035724 40:0.84288057 41:0.02587579 42:0.32654704 43:0.112734 44:0.012903466 45:0.11359207 
0 0 0 0 10 1:0.27042703 2:0.42930543 3:0.079435471 4:0.63427373 5:0.67796818 6:0.2804616 7:0.25879576 8:0.52415471 9:0.032211177 10:0.40278731 11:0.17880236 12:0.86039359 13:0.58560687 14:0.089520228 15:0.2982053 16:0.54847581 17:0.3681378 18:0.12050163 19:0.40711484 20:0.2397993 21:0.3468023 22:0.38489492 23:0.60314282 24:0.11708333 25:0.44459718 26:0.34185819 27:0.44937542 28:0.60280092 29:0.062603879 30:0.24948571 31:0.69946116 32:0.23631324 33:0.032056498 34:0.28083474 35:0.60640959 36:0.17902753 37:0.97198999 38:0.10408795 39:0.00067166694 40:0.85664616 41:0.025901071 42:0.31576863 43:0.068566591 44:0.0094108472 45:0.097008145 
0 0 0 0 10 1:0.26968932 2:0.48108113 3:0.10573003 4:0.61397214 5:0.76197456 6:0.32386288 7:0.25455688 8:0.5308199 9:0.030171193 10:0.52708695 11:0.17302153 12:0.86577416 13:0.46890455 14:0.061283677 15:0.24648867 16:0.50756804 17:0.28857633 18:0.11758922 19:0.33812273 20:0.28948001 21:0.34257957 22:0.35338875 23:0.63178553 24:0.070230866 25:0.5306944 26:0.26465782 27:0.48050592 28:0.6185228 29:0.057015582 30:0.23804646 31:0.70903661 32:0.16821511 33:0.031706468 34:0.26342554 35:0.61829321 36:0.17804733 37:0.97303826 38:0.1623639 39:0.00063277214 40:0.83662434 41:0.025139483 42:0.33735412 43:0.033576418 44:0.0096857031 45:0.098414597 
0 0 0 0 10 1:0.24007593 2:0.57138415 3:0.079026682 4:0.51090972 5:0.68921113 6:0.27973407 7:0.29696306 8:0.39751773 9:0.020980585 10:0.47859325 11:0.14414641 12:0.8034442 13:0.60321517 14:0.07074026 15:0.26492958 16:0.55207337 17:0.35423691 18:0.10686261 19:0.34990985 20:0.33169651 21:0.32655707 22:0.39378345 23:0.66187526 24:0.060899257 25:0.57265546 26:0.24641576 27:0.41517521 28:0.61297717 29:0.027191009 30:0.16409367 31:0.70416679 32:0.42026837 33:0.030456664 34:0.36811579 35:0.71453946 36:0.17450254 37:0.97373114 38:0.19034941 39:0.0005584185 40:0.83608186 41:0.023615377 42:0.33539075 43:0.098086068 44:0.010505327 45:0.10249413 
0.12256061581428157 0 0 0 0 1:0.2798076 2:0.59382659 3:0.089958257 4:0.34352101 5:0.71408998 6:0.2899545 7:0.30465483 8:0.32960423 9:0.038251929 10:0.31250344 11:0.18930111 12:0.79480978 13:0.57524188 14:0.13904943 15:0.36128081 16:0.52987042 17:0.47105546 18:0.14579347 19:0.43922681 20:0.80852141 21:0.37054607 22:0.37071368 23:0.64027084 24:0.11481068 25:0.39002858 26:0.3287853 27:0.46484512 28:0.85619871 29:0.076779664 30:0.26843107 31:0.65993532 32:0.36490751 33:0.015243561 34:0.10821807 35:0.26157709 36:0.11990275 37:0.98886225 38:0.37722875 39:0.00015562255 40:0.79723481 41:0.01210099 42:0.36656514 43:0.10266153 44:0.01031282 45:0.098634704 
0 0 0 0 5.341540026220458 1:0.245733 2:0.61684512 3:0.057363275 4:0.64843149 5:0.62142872 6:0.23804438 7:0.26434957 8:0.42189166 9:0.036978883 10:0.37787239 11:0.19163699 12:0.79788929 13:0.52730525 14:0.067479674 15:0.25871894 16:0.4668449 17:0.52397706 18:0.09984313 19:0.33452791 20:0.81785919 21:0.31563272 22:0.36808666 23:0.66375715 24:0.11776828 25:0.52919534 26:0.34285809 27:0.48739572 28:0.48803329 29:0.11549869 30:0.33921501 31:0.65420539 32:0.43638896 33:0.017968452 34:0.27470028 35:0.54771209 36:0.13402984 37:0.98850552 38:0.471704 39:0.00014465225 40:0.70485218 41:0.012011464 42:0.3546587 43:0.10755752 44:0.010701328 45:0.10344586 
0 0 0 2.9120221526540511 0 1:0.27034463 2:0.57433179 3:0.058634814 4:0.53519934 5:0.44872715 6:0.24068934 7:0.23496949 8:0.49406078 9:0.020369549 10:0.42058574 11:0.14201987 12:0.83893719 13:0.42200057 14:0.074777915 15:0.27242522 16:0.51094142 17:0.3686014 18:0.14960896 19:0.32339604 20:0.88781642 21:0.38648212 22:0.37204991 23:0.6198176 24:0.086407368 25:0.26857753 26:0.29361193 27:0.45424282 28:0.44199145 29:0.11554976 30:0.33929021 31:0.66987777 32:0.17344809 33:0.042493036 34:0.063358468 35:0.064444723 36:0.20612316 37:0.98536834 38:0.28997169 39:0.00041017209 40:0.91331661 41:0.02023715 42:0.37491923 43:0.033074004 44:0.01104121 45:0.1050758 
0 0 0 0 2.1602417435946406 1:0.29237782 2:0.73525024 3:0.061566272 4:0.52185341 5:0.54013248 6:0.24667994 7:0.27726252 8:0.42864659 9:0.028541322 10:0.42462879 11:0.16826088 12:0.81827661 13:0.49039281 14:0.10020096 15:0.31557581 16:0.56193765 17:0.42749464 18:0.12825072 19:0.40264552 20:0.87604387 21:0.35779552 22:0.30266588 23:0.62322631 24:0.075147065 25:0.27540074 26:0.27378077 27:0.48701852 28:0.48366956 29:0.10088796 30:0.31697134 31:0.66925523 32:0.23123086 33:0.041661895 34:0.059866026 35:0.056233456 36:0.20409718 37:0.98377765 38:0.27637994 39:0.00058324388 40:0.92569146 41:0.024134948 42:0.36723229 43:0.099834368 44:0.013455959 45:0.11599848 
0 0 0 4.2200592743755418 0 1:0.27899782 2:0.50994549 3:0.089784256 4:0.64398968 5:0.51407204 6:0.29829278 7:0.25717888 8:0.41549907 9:0.028180166 10:0.50105736 11:0.16718773 12:0.85688705 13:0.54329426 14:0.096121504 15:0.30905596 16:0.52690098 17:0.43404223 18:0.16879223 19:0.52042122 20:0.80844363 21:0.41054445 22:0.37815739 23:0.47947134 24:0.11228109 25:0.4917666 26:0.33476407 27:0.46234446 28:0.61573308 29:0.10722748 30:0.32680821 31:0.67679573 32:0.25375204 33:0.02713465 34:0.065580963 35:0.14138293 36:0.16470996 37:0.98309096 38:0.22705087 39:0.00051368162 40:0.92527133 41:0.022649027 42:0.34706129 43:0.097633237 44:0.0099501479 45:0.099749057 
0 0 0 2.6492456916945613 10 1:0.31179562 2:0.47041074 3:0.082387048 4:0.60598528 5:0.52532884 6:0.28565994 7:0.23174376 8:0.61375802 9:0.01976333 10:0.44862505 11:0.13987833 12:0.82708503 13:0.68124591 14:0.072491353 15:0.26820596 16:0.521718 17:0.57305936 18:0.14427283 19:0.42953488 20:0.75696586 21:0.37951806 22:0.48424771 23:0.75842256 24:0.075842782 25:0.45529097 26:0.27504741 27:0.45507115 28:0.57109359 29:0.084566142 30:0.29011953 31:0.64306096 32:0.53240653 33:0.029853894 34:0.70479647 35:0.16329608 36:0.17276692 37:0.98288906 38:0.99449473 39:0.018948386 40:0.18769359 41:0.13763944 42:0.34345501 43:0.59999947 44:0.018103831 45:0.13454916 
0 0 0 2.485852604796889 0 1:0.23138678 2:0.68274332 3:0.083152406 4:0.48029116 5:0.69630024 6:0.28699263 7:0.2871415 8:0.34927302 9:0.018713031 10:0.45384315 11:0.13608875 12:0.79648965 13:0.57357576 14:0.076125127 15:0.27488099 16:0.54489486 17:0.28094915 18:0.16137388 19:0.3633447 20:0.44719568 21:0.40141019 22:0.44671287 23:0.67393289 24:0.086766356 25:0.445483 26:0.29422221 27:0.44293745 28:0.59576495 29:0.041456732 30:0.20284277 31:0.71824086 32:0.44846031 33:0.020153535 34:0.32873815 35:0.60279096 36:0.14194668 37:0.96805294 38:0.2167281 39:0.00066145914 40:0.85696784 41:0.025703378 42:0.34224301 43:0.048425211 44:0.014487072 45:0.12036091 
0 0 0 3.1644383863965388 0 1:0.23702883 2:0.57878375 3:0.089020702 4:0.47956489 5:0.75017522 6:0.2970135 7:0.30234807 8:0.50083733 9:0.024943757 10:0.50823857 11:0.15724613 12:0.80728894 13:0.52333545 14:0.081937315 15:0.28523468 16:0.53911872 17:0.31035921 18:0.16569321 19:0.32509392 20:0.50308697 21:0.40675352 22:0.41185656 23:0.62378118 24:0.092475652 25:0.33077828 26:0.30376359 27:0.46465818 28:0.50468182 29:0.036218792 30:0.1895332 31:0.72570864 32:0.43678667 33:0.014631854 34:0.33149553 35:0.54986596 36:0.12094533 37:0.96493713 38:0.24274719 39:0.0008684044 40:0.90484039 41:0.029453291 42:0.33878679 43:0.069577895 44:0.014891712 45:0.12203027 
0 0 0 10 7.2006649225155126 1:0.25147607 2:0.60068697 3:0.054904738 4:0.47317705 5:0.71750648 6:0.23284582 7:0.29081788 8:0.44261674 9:0.023896098 10:0.50976287 11:0.15389113 12:0.799984 13:0.53304154 14:0.07375266 15:0.27054147 16:0.55991811 17:0.35959439 18:0.1443931 19:0.44159738 20:0.62854544 21:0.37967643 22:0.38518421 23:0.67239703 24:0.055439933 25:0.45616335 26:0.23508945 27:0.45479096 28:0.6141109 29:0.04832024 30:0.21906763 31:0.72963278 32:0.3832832 33:0.017832135 34:0.15242185 35:0.38070456 36:0.13352039 37:0.96523393 38:0.21146143 39:0.00089858248 40:0.8798486 41:0.029960962 42:0.34923532 43:0.1040095 44:0.01420532 45:0.11918473 
0 0 0 3.040030734821765 0 1:0.25544266 2:0.46018429 3:0.061774409 4:0.4966519 5:0.62841876 6:0.2470998 7:0.23839773 8:0.44546255 9:0.023105945 10:0.44560133 11:0.15131181 12:0.83283057 13:0.54743998 14:0.09086083 15:0.30044044 16:0.52121003 17:0.44297324 18:0.1742419 19:0.39350699 20:0.5358315 21:0.4171274 22:0.38162744 23:0.65560487 24:0.062198707 25:0.45697693 26:0.24903595 27:0.50930745 28:0.58797414 29:0.053833512 30:0.23128114 31:0.73722637 32:0.33258943 33:0.024761686 34:0.14256936 35:0.39377674 36:0.15734229 37:0.96074437 38:0.20142102 39:0.0010092266 40:0.88200855 41:0.031752952 42:0.32545684 43:0.0816867 44:0.011027287 45:0.10500953 
0.12840004446025177 0 0 0 0 1:0.22957053 2:0.68493416 3:0.083472768 4:0.39976501 5:0.77623267 6:0.28754864 7:0.31604026 8:0.40266582 9:0.0285243 10:0.37038539 11:0.16821045 12:0.79686548 13:0.49967119 14:0.089813467 15:0.29869563 16:0.53308409 17:0.41643976 18:0.19076876 19:0.62172362 20:0.5380266 21:0.43648511 22:0.38003536 23:0.77330411 24:0.070330013 25:0.33175774 26:0.2648449 27:0.46686115 28:0.66222236 29:0.038948375 30:0.19658098 31:0.72385047 32:0.49093614 33:0.012548645 34:0.1708741 35:0.45772129 36:0.1120037 37:0.96934061 38:0.29939582 39:0.00046665813 40:0.79961664 41:0.021586736 42:0.35875646 43:0.078826214 44:0.012536988 45:0.11196734 
1.6915440287533492 0 0 0 0 1:0.22318745 2:0.5262336 3:0.12616134 4:0.51663904 5:0.62372638 6:0.35395079 7:0.2677069 8:0.4783133 9:0.038825782 10:0.33187779 11:0.19638449 12:0.84207808 13:0.38311146 14:0.15174107 15:0.38867321 16:0.53895783 17:0.40734831 18:0.21659821 19:0.35665375 20:0.67679945 21:0.46512992 22:0.42325515 23:0.4955797 24:0.17188842 25:0.18450969 26:0.41431284 27:0.51120545 28:0.6006035 29:0.10176161 30:0.31834496 31:0.70859483 32:0.44379337 33:0.028101423 34:0.14240259 35:0.26228372 36:0.16761882 37:0.97020018 38:0.31687456 39:0.00077791252 40:0.89641886 41:0.027875647 42:0.3533288 43:0.059394976 44:0.017519167 45:0.13235867 
0.32122117658326821 0 0 0 0 1:0.21836964 2:0.51099242 3:0.10249782 4:0.37208112 5:0.66521411 6:0.31884457 7:0.2599356 8:0.474865 9:0.041272855 10:0.36617178 11:0.20250409 12:0.8366925 13:0.44018145 14:0.13058186 15:0.36045491 16:0.50208282 17:0.53326812 18:0.17335316 19:0.51305329 20:0.71287377 21:0.41606095 22:0.60185561 23:0.68295932 24:0.13419348 25:0.40959111 26:0.36601965 27:0.46702567 28:0.54533258 29:0.11283157 30:0.33526434 31:0.69426178 32:0.50707593 33:0.023247105 34:0.18949209 35:0.35740921 36:0.15245375 37:0.97565365 38:0.36255718 39:0.0004959798 40:0.8770402 41:0.022255079 42:0.34768964 43:0.096662906 44:0.014869101 45:0.12193759 
0 0 0 4.6182674007715718 0 1:0.2677512 2:0.64262664 3:0.050217641 4:0.60014823 5:0.58740027 6:0.22260178 7:0.26923367 8:0.42879332 9:0.031490274 10:0.4740337 11:0.17678099 12:0.84255591 13:0.47181616 14:0.1058492 15:0.32438764 16:0.53992052 17:0.39429043 18:0.18615465 19:0.44532049 20:0.60708366 21:0.43116801 22:0.45305746 23:0.56024931 24:0.11016018 25:0.57723774 26:0.33158272 27:0.50815179 28:0.64143941 29:0.087389626 30:0.29493893 31:0.66274996 32:0.32694441 33:0.045766407 34:0.18856444 35:0.43445289 36:0.21391576 37:0.98210647 38:0.19939639 39:0.00069378693 40:0.86910462 41:0.026324375 42:0.33438664 43:0.05647101 44:0.012921399 45:0.11367098 
0 0 0 0 6.9294543711187062 1:0.26051792 2:0.55993324 3:0.076052191 4:0.54452309 5:0.60612573 6:0.27438266 7:0.26036201 8:0.58148451 9:0.033569926 10:0.50951129 11:0.18255165 12:0.83592607 13:0.51617431 14:0.088794545 15:0.29698841 16:0.52723146 17:0.28670192 18:0.13852086 19:0.45526737 20:0.60645723 21:0.37186545 22:0.44986315 23:0.67747912 24:0.063109335 25:0.39523695 26:0.25085585 27:0.48095374 28:0.3957716 29:0.086833776 30:0.29399637 31:0.6634282 32:0.25794583 33:0.029999425 34:0.14390549 35:0.38921141 36:0.17318756 37:0.98610228 38:0.24161048 39:0.00038766754 40:0.84817284 41:0.01967371 42:0.35207571 43:0.019575264 44:0.010655634 45:0.10322477 
0 0 0 0 0.52804066845557851 1:0.25939232 2:0.59438666 3:0.061749881 4:0.57627809 5:0.60164951 6:0.24705036 7:0.28199837 8:0.48349389 9:0.032964687 10:0.48919954 11:0.18089113 12:0.84174787 13:0.42772695 14:0.097847489 15:0.31183102 16:0.55604889 17:0.36634835 18:0.14195269 19:0.42805992 20:0.59591399 21:0.37644997 22:0.43513814 23:0.62343736 24:0.062114397 25:0.39275146 26:0.24886678 27:0.4920047 28:0.57015449 29:0.097487697 30:0.31156771 31:0.66318727 32:0.31332797 33:0.0305472 34:0.18437188 35:0.35460636 36:0.17476174 37:0.98291978 38:0.17290266 39:0.00065726116 40:0.8906551 41:0.025621633 42:0.33462608 43:0.069505696 44:0.012214678 45:0.11051868 
0 0 0 2.6648512484240592 5.2162232186230755 1:0.25670212 2:0.54528175 3:0.10279277 4:0.57562253 5:0.6484583 6:0.31930576 7:0.2801223 8:0.50740583 9:0.032489722 10:0.42018419 11:0.17957732 12:0.83273756 13:0.39213649 14:0.10238089 15:0.31900545 16:0.5466066 17:0.47244915 18:0.16062601 19:0.33808372 20:0.71792741 21:0.40047779 22:0.43408127 23:0.48962538 24:0.074169509 25:0.39309393 26:0.27199106 27:0.50691989 28:0.66923322 29:0.12890022 30:0.35840923 31:0.67646754 32:0.33985172 33:0.028505201 34:0.42594924 35:0.43913929 36:0.16881888 37:0.96148232 38:0.91704035 39:0.085404012 40:0.11997263 41:0.29222841 42:0.35421524 43:0.6554574 44:0.034319058 45:0.1852528 
0 0 0 0 5.0866352576271572 1:0.26875975 2:0.54056855 3:0.013793958 4:0.90022771 5:0.68187029 6:0.11517416 7:0.28375589 8:0.54739158 9:0.0010748585 10:0.66402904 11:0.031837711 12:0.83866753 13:0.58800031 14:0.035511393 15:0.18635861 16:0.65986302 17:0.58296479 18:0.071760109 19:0.32551545 20:0.34826077 21:0.26617939 22:0.11796952 23:0.52759789 24:0.056630104 25:0.61043885 26:0.23642302 27:0.47882613 28:0.65877016 29:0.03245841 30:0.17847838 31:0.66848989 32:0.2510538 33:0.69280259 34:0.97572274 35:0.019047091 36:0.82821356 37:0.22091758 38:0.34889275 39:0.083432244 40:0.011645685 41:0.28740159 42:0.92850942 43:0.31032482 44:0.0058422183 45:0.076053669 
0 0 0 1.5636271478939778 0 1:0.2765318 2:0.56884292 3:0.015929032 4:0.88441701 5:0.63749 6:0.123909 7:0.28393824 8:0.6792529 9:0.0010977512 10:0.64336033 11:0.032183459 12:0.82562418 13:0.56835552 14:0.036733667 15:0.18956273 16:0.60125548 17:0.48565643 18:0.095642664 19:0.20237978 20:0.41545943 21:0.30737557 22:0.18496618 23:0.43643568 24:0.089212835 25:0.52377594 26:0.29686504 27:0.46580672 28:0.69283387 29:0.034313454 30:0.18353472 31:0.73458178 32:0.32880786 33:0.5226418 34:0.97234708 35:0.026243457 36:0.7193465 37:0.29245151 38:0.32106048 39:0.05077295 40:0.0077675686 41:0.22419795 42:0.90423055 43:0.24622055 44:0.0051517357 45:0.07141797 
0 0 0 10 0 1:0.24535337 2:0.56168561 3:0.019230209 4:0.70642774 5:0.42666546 6:0.13702212 7:0.26534686 8:0.68028963 9:0.0011681209 10:0.58579727 11:0.033394076 12:0.83907988 13:0.48937034 14:0.018161678 15:0.1335416 16:0.43449401 17:0.35237125 18:0.13454743 19:0.030993472 20:0.21317875 21:0.3664859 22:0.5961885 23:0.31777537 24:0.12234952 25:0.85761408 26:0.34947239 27:0.58177674 28:0.66487209 29:0.070906379 30:0.26557596 31:0.74837297 32:0.24443054 33:0.39657353 34:0.99470603 35:0.0063010989 36:0.62973374 37:0.2644605 38:0.22242684 39:0.11242866 40:0.0034542869 41:0.33529327 42:0.90914418 43:0.1720938 44:0.0081727335 45:0.090401787 
0 0 0 1.0184995209780425 0 1:0.26488194 2:0.57663262 3:0.01293268 4:0.61449561 5:0.33089919 6:0.11202582 7:0.26659491 8:0.67944255 9:0.0010092518 10:0.55432558 11:0.030983786 12:0.84586403 13:0.49705079 14:0.016413977 15:0.12688431 16:0.44490953 17:0.34562146 18:0.13554968 19:0.043948737 20:0.23339071 21:0.36785024 22:0.68373237 23:0.39833692 24:0.096431116 25:0.84695985 26:0.31020218 27:0.59801612 28:0.55073154 29:0.055587337 30:0.2350339 31:0.6950614 32:0.2111874 33:0.63004902 34:0.98340551 35:0.018592647 36:0.79375232 37:0.20188668 38:0.093995975 39:0.13306163 40:0.0027366041 41:0.36476605 42:0.929013 43:0.10035463 44:0.0096073296 45:0.098015612 
0 0 0.024866002659406118 0 0 1:0.23696084 2:0.78624011 3:0.011136776 4:0.30332205 5:0.5357263 6:0.10382027 7:0.26055462 8:0.8841503 9:0.00063634381 10:0.59344409 11:0.024438296 12:0.86120571 13:0.70418015 14:0.021609601 15:0.14579515 16:0.50762158 17:0.62131846 18:0.10273606 19:0.29461922 20:0.61608926 21:0.32018005 22:0.46517418 23:0.50430404 24:0.15238853 25:0.17280543 26:0.39007665 27:0.52976417 28:0.4633705 29:0.070745888 30:0.26527414 31:0.43535842 32:0.2272069 33:0.12044846 34:0.96892466 35:0.54707903 36:0.34704433 37:0.034448267 38:0.283932 39:0.010908117 40:0.46427686 41:0.10442771 42:0.97051443 43:0.29591783 44:0.00038565686 45:0.019636655 
0 0 0.49460650173368864 0 0 1:0.24561241 2:0.79654428 3:0.00021664843 4:0.63085629 5:0.37574368 6:0.01294141 7:0.2674392 8:0.81859335 9:3.6433759e-05 10:0.6333837 11:0.0052749713 12:0.85601615 13:0.56062796 14:0.00034045344 15:0.017109532 16:0.56189624 17:0.4767575 18:0.0021116311 19:0.18064485 20:0.50853621 21:0.0454709 22:0.40557633 23:0.8407168 24:0.00093874779 25:0.48292118 26:0.030176333 27:0.5455421 28:0.6019592 29:0.0013398695 30:0.03568705 31:0.4399099 32:0.4009826 33:0.0080900771 34:0.99364269 35:0.0077205858 36:0.089927395 37:0.31168918 38:0.380415 39:0.007759101 40:0.0002657293 41:0.088071276 42:0.91770963 43:0.3795345 44:0.0002247145 45:0.01498898 
0 0 0 0 6.6972494240140454 1:0.24800541 2:0.32375069 3:9.4492948e-05 4:0.75638875 5:0.43278669 6:0.0079972889 7:0.26761001 8:0.53157721 9:1.8771906e-05 10:0.6691333 11:0.0035917272 12:0.8552405 13:0.55248079 14:0.00018644417 15:0.012324913 16:0.55343248 17:0.44918483 18:0.0012585761 19:0.13496466 20:0.80215551 21:0.03499034 22:0.40933973 23:0.64566831 24:0.00034972426 25:0.27605809 26:0.018234924 27:0.55024899 28:0.64724622 29:0.00050513684 30:0.021552426 31:0.44877709 32:0.50260717 33:0.0038441801 34:0.99179914 35:0.011011553 36:0.061983456 37:0.33587062 38:0.51412747 39:0.0029390266 40:0.0003770898 41:0.054197769 42:0.9123831 43:0.52253508 44:9.5120372e-05 45:0.0097514591 
0 0 0.041169975482575727 0 0 1:0.2520335 2:0.50703517 3:9.6957042e-05 4:0.46910587 5:0.53578666 6:0.0081210789 7:0.26818791 8:0.52481583 9:1.7920316e-05 10:0.68505261 11:0.0034940085 12:0.85621362 13:0.54116803 14:0.00012072968 15:0.0096721541 16:0.51671571 17:0.340581 18:0.0011922878 19:0.17836373 20:0.76967727 21:0.034043063 22:0.4254739 23:0.61036562 24:0.00019859915 25:0.57125928 26:0.013626334 27:0.52494091 28:0.13897414 29:0.0007920151 30:0.027221242 31:0.46368401 32:0.18544916 33:0.00080312156 34:0.9260631 35:0.1013397 36:0.02832076 37:0.36677599 38:0.053827194 39:0.00055238453 40:0.0022843722 41:0.023487357 42:0.9052296 43:0.053533522 44:2.3079587e-05 45:0.0048026062 
0 0 0.20203541352335772 0 0 1:0.25083436 2:0.4261442 3:0.00023594125 4:0.56425641 5:0.32457488 6:0.013578825 7:0.26515296 8:0.41374904 9:3.8583821e-05 10:0.69743713 11:0.0054491066 12:0.85706015 13:0.51037336 14:0.0003330849 15:0.01690908 16:0.50913551 17:0.44965581 18:0.0024952513 19:0.051254864 20:0.26768839 21:0.04947271 22:0.40644012 23:0.58988656 24:0.0022342748 25:0.86792567 26:0.046812128 27:0.48986192 28:0.73229369 29:0.0017357195 30:0.040748125 31:0.46442987 32:0.27151986 33:0.00065847707 34:0.94430089 35:0.068053572 36:0.025642118 37:0.35942259 38:0.20384393 39:0.0016039545 40:0.00063365202 41:0.040034156 42:0.90745084 43:0.22561326 44:7.3184124e-05 45:0.008553262 
0 0 0.024613952595692795 0 0 1:0.25296087 2:0.7648376 3:0.00047315928 4:0.2526772 5:0.61672874 6:0.01994768 7:0.26216782 8:0.73370043 9:0.00020324871 10:0.20068344 11:0.013470234 12:0.85887537 13:0.63707231 14:0.00070419388 15:0.025189663 16:0.5315095 17:0.436916 18:0.0062503506 19:0.045521786 20:0.058836718 21:0.078593203 22:0.35538189 23:0.22829316 24:0.0078841084 25:0.97846326 26:0.088355345 27:0.43800986 28:0.4612582 29:0.012519276 30:0.11103647 31:0.46877275 32:0.44104011 33:0.0049599214 34:0.85198559 35:0.20865455 36:0.070408874 37:0.35763285 38:0.12087374 39:0.0014913045 40:0.0063831246 41:0.038602145 42:0.90838601 43:0.084704689 44:5.8794723e-05 45:0.0076662603 
0 0 0.52874249640496085 0 0 1:0.24775879 2:0.57690506 3:0.0015209268 4:0.83883782 5:0.18677582 6:0.037190074 7:0.26838093 8:0.69820263 9:0.0002434404 10:0.053848485 11:0.014815348 12:0.85349515 13:0.63790337 14:0.0020725165 15:0.044189044 16:0.50184808 17:0.71556684 18:0.0023244785 19:0.58749605 20:0.83124426 21:0.047732275 22:0.41338428 23:0.70544657 24:0.0023255113 25:0.74637721 26:0.047767979 27:0.48578904 28:0.62515298 29:0.0064786863 30:0.079608518 31:0.39387142 32:0.35175007 33:0.0002046115 34:0.88697781 35:0.14752568 36:0.014285346 37:0.3427133 38:0.44759052 39:0.00093435829 40:0.0055749694 41:0.030551881 42:0.90118161 43:0.50663887 44:3.3339505e-05 45:0.0057725229 
0 0 0.080000315658041513 0 0 1:0.25324978 2:0.53172324 3:0.0012938972 4:0.84887622 5:0.27054531 6:0.034159963 7:0.27068434 8:0.58578218 9:0.00015524415 10:0.12391069 11:0.011675329 12:0.85567277 13:0.63350196 14:0.0016017529 15:0.038681275 16:0.54040582 17:0.53293521 18:0.0048194444 19:0.18350264 20:0.90865866 21:0.068951597 22:0.36588621 23:0.52682134 24:0.0020386239 25:0.28539556 26:0.044694232 27:0.45738717 28:0.28665377 29:0.01044167 30:0.10132242 31:0.44070595 32:0.11551063 33:0.012266948 34:0.99669644 35:0.0076370666 36:0.11073919 37:0.3545769 38:0.080150153 39:0.003295426 40:0.0010015446 41:0.057390831 42:0.90576946 43:0.085121976 44:8.6690707e-05 45:0.0093092755 
0 1.5212232912300345 0 0 0 1:0.24980441 2:0.41517357 3:0.0018846882 4:0.651157 5:0.74197942 6:0.041607679 7:0.26672493 8:0.58129344 9:9.4330387e-05 10:0.69941763 11:0.0089333793 12:0.85807835 13:0.46649838 14:0.001862308 15:0.041816459 16:0.52689386 17:0.56433783 18:0.0014453702 19:0.58587677 20:0.42992196 21:0.037532995 22:0.4658415 23:0.72328808 24:0.0021509972 25:0.74326358 26:0.045922476 27:0.56801721 28:0.37626463 29:0.0063454711 30:0.078775954 31:0.53788622 32:0.28744631 33:0.0032208999 34:0.11082936 35:0.90324137 36:0.056734875 37:0.36785391 38:0.3683848 39:0.00037216557 40:0.00064662821 41:0.019276022 42:0.9099106 43:0.37420488 44:2.331116e-05 45:0.0048266476 
0 0.62530557539478604 0 0 0 1:0.25157226 2:0.61510794 3:0.00082881779 4:0.82011642 5:0.46022577 6:0.026977397 7:0.26739783 8:0.62941326 9:5.8027413e-05 10:0.34546937 11:0.0068463319 12:0.85595376 13:0.54015384 14:0.00091005717 15:0.028820752 16:0.51667351 17:0.69772065 18:0.0011936216 19:0.26451396 20:0.42996828 21:0.034062379 22:0.41501362 23:0.64151471 24:0.00095037984 25:0.58391574 26:0.03036564 27:0.49432003 28:0.61548074 29:0.0022934103 30:0.046980279 31:0.51971502 32:0.28653461 33:0.00024664108 34:0.22948556 35:0.79030558 36:0.015685935 37:0.41521571 38:0.21283544 39:0.00019365848 40:0.00057990204 41:0.013900469 42:0.89451453 43:0.19414423 44:1.3367957e-05 45:0.0036547043 
0 0 0.018542837593710122 0 10 1:0.24088872 2:0.57280514 3:0.049347405 4:0.47458174 5:0.73563449 6:0.22064791 7:0.26013932 8:0.48772147 9:0.019487537 10:0.35030918 11:0.13889319 12:0.81900331 13:0.28278867 14:0.051748183 15:0.22638736 16:0.50504474 17:0.36054859 18:0.03187257 19:0.1878943 20:0.70757734 21:0.17811253 22:0.34316694 23:0.61013535 24:0.042338243 25:0.5049749 26:0.20538096 27:0.49995385 28:0.62772214 29:0.022950905 30:0.15067958 31:0.68598072 32:0.44346693 33:0.0041051635 34:0.7528937 35:0.78348122 36:0.064053593 37:0.96253639 38:0.056086704 39:0.0011467428 40:0.99134432 41:0.033848249 42:0.26489393 43:0.054338173 44:0.0056921627 45:0.075445014 
0 0 0 10 10 1:0.22783806 2:0.55655531 3:0.024629279 4:0.68153504 5:0.74556471 6:0.15531997 7:0.25249168 8:0.57300205 9:0.014409177 10:0.43574835 11:0.11931798 12:0.82739748 13:0.099282792 14:0.042012548 15:0.2038432 16:0.43047181 17:0.26956718 18:0.020193512 19:0.36022014 20:0.68369026 21:0.1416692 22:0.41908188 23:0.6560606 24:0.0082855294 25:0.26486827 26:0.090588769 27:0.50118976 28:0.57245084 29:0.017982765 30:0.13326747 31:0.68121978 32:0.36038872 33:0.0029338223 34:0.46815309 35:0.44816487 36:0.054146623 37:0.96527946 38:0.0533651 39:0.0016566014 40:0.98581247 41:0.040686134 42:0.27705903 43:0.16468194 44:0.010722703 45:0.10354912 
0 4.6800999773900998 0.79563056824944944 10 10 1:0.22771473 2:0.52202953 3:0.031594239 4:0.55575364 5:0.69747623 6:0.17616924 7:0.31870583 8:0.53258333 9:0.015382003 10:0.37065576 11:0.12330714 12:0.85524831 13:0.40290932 14:0.039298226 15:0.19710197 16:0.40449234 17:0.39363002 18:0.013637169 19:0.51675666 20:0.54999812 21:0.11633095 22:0.46581101 23:0.61490581 24:0.014024518 25:0.2592167 26:0.11800193 27:0.48563655 28:0.58382141 29:0.025653038 30:0.15935788 31:0.67637999 32:0.46577371 33:0.0059760838 34:0.30985485 35:0.28024631 36:0.077287431 37:0.97179179 38:0.19993976 39:0.0021790081 40:0.9850911 41:0.046664707 42:0.30737977 43:0.22018473 44:0.017039505 45:0.13053413 
0 0.00040928152909408137 0 0 7.8005340780040573 1:0.29119095 2:0.50242151 3:0.077423161 4:0.42775622 5:0.6399729 6:0.27686194 7:0.29830725 8:0.72065486 9:0.011960595 10:0.30223051 11:0.10863576 12:0.89739691 13:0.46552004 14:0.03373896 15:0.18252556 16:0.50328815 17:0.27979824 18:0.086661985 19:0.20147351 20:0.35773134 21:0.29402623 22:0.38388683 23:0.57203885 24:0.044852224 25:0.48148223 26:0.21140469 27:0.4515487 28:0.45377708 29:0.029691797 30:0.17151681 31:0.66829576 32:0.23796746 33:0.018722148 34:0.17117043 35:0.24960726 36:0.13681234 37:0.9823363 38:0.3085906 39:0.0015908683 40:0.95683301 41:0.039870444 42:0.33468789 43:0.12109324 44:0.011810083 45:0.10867285 
0 0 0 10 10 1:0.25063852 2:0.44691461 3:0.067152846 4:0.36926736 5:0.70124147 6:0.25771403 7:0.24923556 8:0.30511645 9:0.0095624632 10:0.56950085 11:0.097049966 12:0.84931042 13:0.4493232 14:0.03005438 15:0.17219152 16:0.55404702 17:0.14913215 18:0.090320133 19:0.25962303 20:0.39868008 21:0.30017834 22:0.46036069 23:0.46864399 24:0.051250321 25:0.55089296 26:0.22601358 27:0.44646461 28:0.40112001 29:0.023214899 30:0.15154921 31:0.6623816 32:0.24514056 33:0.015185398 34:0.24298113 35:0.42732435 36:0.12321222 37:0.98751162 38:0.15534379 39:0.00044822976 40:0.92481304 41:0.021155896 42:0.34267796 43:0.028044772 44:0.0077288313 45:0.087912383 
0 0 0 0 10 1:0.26112454 2:0.50266733 3:0.077048861 4:0.43670188 5:0.72241858 6:0.27618724 7:0.31218505 8:0.50078192 9:0.015935693 10:0.49578611 11:0.12552136 12:0.81228092 13:0.51384645 14:0.042250318 15:0.2044232 16:0.59491522 17:0.25752473 18:0.076977643 19:0.26353347 20:0.29906591 21:0.27708203 22:0.45306763 23:0.45056461 24:0.056424539 25:0.55807902 26:0.23717208 27:0.47117881 28:0.74164966 29:0.040070058 30:0.19940531 31:0.656349 32:0.29949475 33:0.010659404 34:0.40904728 35:0.55396593 36:0.10322718 37:0.98460482 38:0.24437369 39:0.00075947454 40:0.95213586 41:0.027543124 42:0.3304771 43:0.11967581 44:0.011508978 45:0.10727854 
0 0 0 0 10 1:0.2241197 2:0.49678772 3:0.040198246 4:0.4958802 5:0.71359426 6:0.19895928 7:0.27550845 8:0.45901733 9:0.018807615 10:0.37002404 11:0.13643431 12:0.81069887 13:0.40608635 14:0.041130356 15:0.20167675 16:0.436153 17:0.39954634 18:0.03506937 19:0.64338585 20:0.39576478 21:0.1868562 22:0.49526442 23:0.51500917 24:0.032908189 25:0.38193772 26:0.18101287 27:0.53505291 28:0.62368161 29:0.033624518 30:0.18258413 31:0.68288932 32:0.31988723 33:0.019880501 34:0.73884253 35:0.845616 36:0.14098175 37:0.97534839 38:0.090964154 39:0.00037723933 40:0.94390732 41:0.019407081 42:0.31458379 43:0.1613041 44:0.011312285 45:0.10635787 
0 1.9405101497772155 0 0 10 1:0.22793109 2:0.56544128 3:0.073837333 4:0.28379434 5:0.63317646 6:0.27032959 7:0.2963449 8:0.64218879 9:0.020865965 10:0.50168184 11:0.14374989 12:0.79691558 13:0.68342127 14:0.049133699 15:0.22055816 16:0.56074629 17:0.36687165 18:0.083817113 19:0.24956595 20:0.34392075 21:0.28915153 22:0.39231468 23:0.63073708 24:0.065112701 25:0.56407561 26:0.25481394 27:0.457965 28:0.64651979 29:0.024350464 30:0.15523468 31:0.69127704 32:0.67579093 33:0.0043381601 34:0.61987337 35:0.69273922 36:0.065846788 37:0.97965579 38:0.25910186 39:0.00032009987 40:0.94611497 41:0.017875742 42:0.33969437 43:0.091657783 44:0.0090979153 45:0.095381615 
0 0 0 0 10 1:0.27977288 2:0.43246589 3:0.056029559 4:0.4627235 5:0.59777071 6:0.23523839 7:0.24377055 8:0.42782802 9:0.021215617 10:0.38491744 11:0.14495611 12:0.848384 13:0.60229103 14:0.061758064 15:0.24744631 16:0.55713026 17:0.46215251 18:0.10319108 19:0.22416696 20:0.3148477 21:0.32088942 22:0.43858312 23:0.66126224 24:0.070520409 25:0.62478292 26:0.2652038 27:0.47220205 28:0.61020859 29:0.034061485 30:0.18377291 31:0.70236171 32:0.22213168 33:0.016277217 34:0.35356775 35:0.58930713 36:0.12756546 37:0.97178907 38:0.13530095 39:0.00054671289 40:0.91675095 41:0.023366385 42:0.31276105 43:0.097516215 44:0.0080021017 45:0.08945308 
0 0 0 0 10 1:0.20839763 2:0.55656253 3:0.032636627 4:0.46689872 5:0.58462486 6:0.17908311 7:0.27445123 8:0.31880196 9:0.022319159 10:0.3171685 11:0.14869929 12:0.81518851 13:0.49465404 14:0.042747176 15:0.20562997 16:0.47415687 17:0.51933918 18:0.057489031 19:0.36536198 20:0.43080884 21:0.23938323 22:0.47811403 23:0.69000449 24:0.038532326 25:0.41879503 26:0.19591037 27:0.52050688 28:0.61403188 29:0.025490793 30:0.1588501 31:0.70886826 32:0.17847961 33:0.014587777 34:0.56527376 35:0.78740456 36:0.120763 37:0.96992025 38:0.18961467 39:0.00033048746 40:0.9054157 41:0.018163726 42:0.31814006 43:0.13512332 44:0.0098856067 45:0.099425017 
0 0 0.01449830018587641 0 0 1:0.2965649 2:0.43134237 3:0.096549249 4:0.40223833 5:0.57976028 6:0.30939749 7:0.24372739 8:0.52538273 9:0.023607847 10:0.37437623 11:0.1529552 12:0.85015155 13:0.68064948 14:0.065943522 15:0.25574097 16:0.55742303 17:0.45113813 18:0.11863949 19:0.27357897 20:0.24248127 21:0.34410833 22:0.71046231 23:0.67537009 24:0.1261935 25:0.61710039 26:0.35492728 27:0.41975209 28:0.63738765 29:0.052802123 30:0.22904563 31:0.65373233 32:0.14359697 33:0.020004816 34:0.65322039 35:0.82458788 36:0.14142191 37:0.98199148 38:0.25479887 39:0.00052654234 40:0.91483719 41:0.022930997 42:0.31392738 43:0.10981373 44:0.010762465 45:0.10374093 
0.22167173812864543 0 0 0 0 1:0.26286645 2:0.45692994 3:0.1148254 4:0.39068377 5:0.60406642 6:0.33590155 7:0.22659552 8:0.49618342 9:0.031918389 10:0.39329075 11:0.17709678 12:0.85614872 13:0.61738203 14:0.087903822 15:0.29401444 16:0.56198793 17:0.40490978 18:0.1517788 19:0.27836665 20:0.3532586 21:0.38734392 22:0.54003574 23:0.69408348 24:0.13540317 25:0.59315507 26:0.3658408 27:0.43409848 28:0.66252185 29:0.06164452 30:0.24632597 31:0.68063312 32:0.26269834 33:0.022607596 34:0.55074965 35:0.75024948 36:0.14959571 37:0.97517219 38:0.16189904 39:0.00061793664 40:0.91330947 41:0.024719478 42:0.31216551 43:0.075761527 44:0.011560336 45:0.10698405 
0.62515328273680781 0 0 0 0 1:0.21708554 2:0.43979829 3:0.10175915 4:0.50238253 5:0.67625984 6:0.31768666 7:0.25739046 8:0.48119313 9:0.024442047 10:0.35975746 11:0.15564844 12:0.82272705 13:0.62975862 14:0.09120252 15:0.30100749 16:0.50992413 17:0.55261533 18:0.1612332 19:0.30495511 20:0.51596534 21:0.40123496 22:0.39178963 23:0.68358347 24:0.15841806 25:0.43305662 26:0.39772824 27:0.52054701 28:0.70794069 29:0.051392161 30:0.22595395 31:0.70718668 32:0.4272295 33:0.013688397 34:0.40991944 35:0.63758006 36:0.11698048 37:0.97093435 38:0.30969437 39:0.00051054264 40:0.91027303 41:0.022579671 42:0.32073826 43:0.093640609 44:0.0099935105 45:0.099966176 
0.13605971267484149 0 0 0 0 1:0.25425796 2:0.59682239 3:0.077951026 4:0.37983422 5:0.63604456 6:0.27781067 7:0.28817418 8:0.46183991 9:0.030761336 10:0.37512733 11:0.17471342 12:0.81750003 13:0.56014917 14:0.10053691 15:0.31610677 16:0.5704576 17:0.43106476 18:0.17182783 19:0.53635283 20:0.68863002 21:0.41422421 22:0.43116811 23:0.6231192 24:0.096787975 25:0.35134169 26:0.31077652 27:0.47774759 28:0.83786017 29:0.061642579 30:0.24755543 31:0.73723493 32:0.45155635 33:0.011884663 34:0.25994544 35:0.50280466 36:0.10899971 37:0.9619714 38:0.27309935 39:0.0006592448 40:0.86991621 41:0.025660292 42:0.34168254 43:0.084342514 44:0.01386627 45:0.11775378 
0 0 0 3.7668710522854858 0.21351355221218379 1:0.22630593 2:0.65527631 3:0.06125997 4:0.55781669 5:0.59423239 6:0.24361743 7:0.30046255 8:0.41023615 9:0.033706352 10:0.49441189 11:0.18111353 12:0.82621967 13:0.31958011 14:0.089964647 15:0.29598872 16:0.54440909 17:0.35049948 18:0.14109919 19:0.38209575 20:0.75947581 21:0.37161223 22:0.39473978 23:0.68229862 24:0.07329988 25:0.33928537 26:0.26772026 27:0.49154788 28:0.46902788 29:0.096300691 30:0.30659879 31:0.68067596 32:0.30537247 33:0.029187985 34:0.09420548 35:0.37624587 36:0.16914573 37:0.98174467 38:0.32331988 39:0.00040564016 40:0.60219147 41:0.019926516 42:0.31066341 43:1 44:0.99984235 45:0.99006948 
0 0 0 2.91107305147281 0 1:0.25879488 2:0.48050256 3:0.08092873 4:0.47574387 5:0.61005911 6:0.28310339 7:0.27441044 8:0.47679463 9:0.028997711 10:0.44366632 11:0.16960734 12:0.84158199 13:0.50443496 14:0.086357007 15:0.2928641 16:0.54433571 17:0.41534059 18:0.15547672 19:0.49709437 20:0.78725772 21:0.39399811 22:0.41362139 23:0.53365306 24:0.10251626 25:0.53675591 26:0.31985481 27:0.48285174 28:0.58909093 29:0.12687335 30:0.3555726 31:0.67858268 32:0.35341817 33:0.024208498 34:0.092994931 35:0.28713051 36:0.1555746 37:0.98349488 38:0.38430929 39:0.00026023116 40:0.74702344 41:0.016116062 42:0.35657023 43:0.54299017 44:0.018351182 45:0.13546522 
0 0 0 2.3070981666404404 0 1:0.25076351 2:0.54646419 3:0.079548315 4:0.50509417 5:0.62809327 6:0.2806621 7:0.25430565 8:0.50206296 9:0.029000869 10:0.39335474 11:0.16961662 12:0.80666249 13:0.60599659 14:0.063937971 15:0.25180031 16:0.49438656 17:0.51622763 18:0.14482493 19:0.44958575 20:0.80103641 21:0.38024449 22:0.38425267 23:0.62392792 24:0.096657838 25:0.5517739 26:0.3105672 27:0.49060427 28:0.57800588 29:0.12717636 30:0.35599809 31:0.68150885 32:0.4209139 33:0.018677177 34:0.10498906 35:0.32809695 36:0.1366479 37:0.9829327 38:0.39791396 39:0.0002302807 40:0.72081858 41:0.015159368 42:0.35660085 43:0.54550249 44:0.018351738 45:0.13546727 
0 0 0 3.3656307392519333 0 1:0.24076999 2:0.40539258 3:0.090831547 4:0.50625201 5:0.60701924 6:0.30003862 7:0.24589738 8:0.5484185 9:0.029072822 10:0.51985491 11:0.16982792 12:0.84770892 13:0.45795346 14:0.085915239 15:0.29211042 16:0.53053099 17:0.38843947 18:0.16670421 19:0.45662481 20:0.73147006 21:0.40799412 22:0.42493869 23:0.49748106 24:0.11868247 25:0.48804983 26:0.3441881 27:0.47047257 28:0.52604309 29:0.12035019 30:0.34628607 31:0.6737286 32:0.29905425 33:0.025045381 34:0.1008967 35:0.35925646 36:0.15824117 37:0.98433294 38:0.36846451 39:0.00026847202 40:0.71356914 41:0.0163695 42:0.36266393 43:0.49478143 44:0.01947342 45:0.13954589 
0 0 0 1.2778446537119363 0 1:0.24315734 2:0.32799903 3:0.12114122 4:0.221946 5:0.36829055 6:0.34679862 7:0.26991636 8:0.42233518 9:0.038648553 10:0.36062471 11:0.19593389 12:0.84696649 13:0.45271704 14:0.11536076 15:0.33871109 16:0.016094081 17:0.54291995 18:0.13162346 19:0.44528759 20:0.44089845 21:0.36247626 22:0.20654309 23:0.36722379 24:0.28168005 25:0.61414331 26:0.53050974 27:0.344185 28:0.44231764 29:0.82099372 30:0.90599648 31:0.5684085 32:0.27921774 33:0.52532653 34:0.93081781 35:0.018004964 36:0.72478885 37:0.74703691 38:0.33565911 39:0.5726755 40:0.039480633 41:0.7567494 42:0.58459764 43:0.29914186 44:0.1506827 45:0.38817777 
-0 0 0 0.25457407487916067 0 1:0.27258293 2:0.70056935 3:0.21111372 4:0.43835547 5:0.62441482 6:0.45843003 7:0.27111314 8:0.34246871 9:0.36246318 10:0.36609073 11:0.60172253 12:0.76773171 13:0.60926332 14:0.32282723 15:0.56756569 16:0.38659948 17:0.44150069 18:0.47200563 19:0.36941003 20:0.62234493 21:0.68686785 22:0.49810983 23:0.75822058 24:0.2940317 25:0.33275933 26:0.54202679 27:0.52731643 28:0.61130163 29:0.13786202 30:0.370692 31:0.62999236 32:0.36903071 33:0.022264505 34:0.36377273 35:0.40097751 36:0.14919663 37:0.98626029 38:0.30888795 39:0.0006913393 40:0.91842834 41:0.02627787 42:0.33787634 43:0.30405676 44:0.017289337 45:0.1314876 
-0 0 0 0.13248454713857227 0.19056853174692545 1:0.31954379 2:0.7095492 3:0.16289469 4:0.6079164 5:0.52172486 6:0.40245377 7:0.15626114 8:0.36008014 9:0.39265256 10:0.35328973 11:0.62631349 12:0.8126006 13:0.66964251 14:0.3602467 15:0.59963781 16:0.54113905 17:0.52452775 18:0.43477074 19:0.36649788 20:0.720363 21:0.65919864 22:0.3527194 23:0.74492552 24:0.25136858 25:0.23695874 26:0.50112695 27:0.53729199 28:0.57213036 29:0.10984578 30:0.33078585 31:0.62876684 32:0.42360141 33:0.015551856 34:0.35305418 35:0.43065847 36:0.12469028 37:0.97908781 38:0.34900085 39:0.001230843 40:0.94623571 41:0.035068049 42:0.29774045 43:0.20173045 44:0.01527653 45:0.12359692 
-0 0 0 0 0.12967655964582578 1:0.26418635 2:0.64610959 3:0.17162696 4:0.61182842 5:0.50574935 6:0.41315095 7:0.37351904 8:0.34517923 9:0.44938596 10:0.37121821 11:0.67009199 12:0.82392927 13:0.51314354 14:0.32963054 15:0.57352987 16:0.65343363 17:0.4624656 18:0.49561194 19:0.5041638 20:0.71422515 21:0.70384692 22:0.42024037 23:0.73672312 24:0.16421864 25:0.36500041 26:0.40495305 27:0.56709429 28:0.65024312 29:0.089526452 30:0.29853472 31:0.65725445 32:0.4650919 33:0.019036253 34:0.22159159 35:0.31235364 36:0.13795539 37:0.97848561 38:0.41859241 39:0.001243823 40:0.93735636 41:0.035252555 42:0.31881823 43:0.40316765 44:0.01690074 45:0.13000152 
-0.017354485525287081 0 0 0.12935959722352797 0 1:0.21623649 2:0.74791724 3:0.17770929 4:0.46150301 5:0.81830238 6:0.42044188 7:0.072835733 8:0.41054747 9:0.4410333 10:0.12269128 11:0.66382768 12:0.92159316 13:0.57789272 14:0.29848192 15:0.54569082 16:0.58555734 17:0.37239015 18:0.28799613 19:0.33544467 20:0.67347566 21:0.53641763 22:0.81109509 23:0.60851323 24:0.28219405 25:0.35181454 26:0.53099399 27:0.43605568 28:0.668242 29:0.11307963 30:0.33563374 31:0.65201711 32:0.47259205 33:0.012639188 34:0.22173641 35:0.24918361 36:0.11240711 37:0.96928293 38:0.2116129 39:0.0020258578 40:0.97402978 41:0.044994364 42:0.27580239 43:0.18535059 44:0.013311811 45:0.11537547 
-1.2469670790576537 0 0 0 0 1:0.22899182 2:0.62722281 3:0.18738459 4:0.41321342 5:0.67189824 6:0.43178724 7:0.13974455 8:0.23547838 9:0.37506369 10:0.21042608 11:0.61210633 12:0.83790492 13:0.52702617 14:0.31955737 15:0.56467678 16:0.52198546 17:0.49745024 18:0.33692328 19:0.45440699 20:0.68637237 21:0.58023806 22:0.36570329 23:0.68579979 24:0.3343129 25:0.31685497 26:0.57799515 27:0.55408111 28:0.86285237 29:0.076737674 30:0.27631938 31:0.70067415 32:0.4496508 33:0.0085385863 34:0.098991667 35:0.14953055 36:0.092387057 37:0.96304738 38:0.25279839 39:0.0014663782 40:0.94571792 41:0.038278045 42:0.29501375 43:0.1792669 44:0.015154805 45:0.12310352 
-0 0.20697129965585059 0.25580389374072221 0.47136752274507632 0.088958039428343572 1:0.23264836 2:0.68397326 3:0.17069913 4:0.58906496 5:0.65585651 6:0.41202747 7:0.13453495 8:0.45991857 9:0.36280696 10:0.38736942 11:0.60200821 12:0.85535845 13:0.7054329 14:0.37546967 15:0.61220587 16:0.46957815 17:0.49656656 18:0.34210572 19:0.43587032 20:0.53289673 21:0.58468743 22:0.37178367 23:0.71999489 24:0.32253284 25:0.25225378 26:0.56771198 27:0.55639644 28:0.85464542 29:0.068117827 30:0.26028229 31:0.69168202 32:0.25175665 33:0.01480435 34:0.41944264 35:0.52337678 36:0.12165628 37:0.95927285 38:0.15744245 39:0.0021065077 40:0.95192086 41:0.045881555 42:0.28109963 43:0.15802475 44:0.017512103 45:0.13233198 
-1.83941935074531 0.55873294639924975 0.11465265195548267 1.0478064940490817 1.7615229192204669 1:0.2056374 2:0.68108833 3:0.14794392 4:0.56296157 5:0.64128462 6:0.38345004 7:0.21135305 8:0.44566587 9:0.37211553 10:0.36347942 11:0.60969265 12:0.82021241 13:0.57358993 14:0.27337072 15:0.52217118 16:0.52433812 17:0.55189371 18:0.44027742 19:0.43372537 20:0.5078313 21:0.66336332 22:0.5452319 23:0.70445076 24:0.29287662 25:0.25110862 26:0.54096014 27:0.50793511 28:0.69477075 29:0.058691926 30:0.24153461 31:0.6868799 32:0.51580332 33:0.016013182 34:0.3947828 35:0.51348206 36:0.12652644 37:0.97301935 38:0.22509185 39:0.001279839 40:0.93857336 41:0.035759526 42:0.33200668 43:0.14143137 44:0.018892179 45:0.13744751 
-0.18775976473620937 0 0 0.032400799346842993 0.074706219329496462 1:0.30430993 2:0.36684837 3:0.30562491 4:0.12198552 5:0.99963805 6:0.54922303 7:0.18739359 8:0.35138453 9:0.35660525 10:0.14376663 11:0.59386767 12:0.82857876 13:0.48022169 14:0.35963075 15:0.59614334 16:0.50123383 17:0.42650771 18:0.33260998 19:0.47337177 20:0.40007961 21:0.57364511 22:0.6109497 23:0.6579025 24:0.19616513 25:0.41091134 26:0.44043837 27:0.4409876 28:0.83800316 29:0.18392475 30:0.42618368 31:0.38600346 32:0.43092535 33:0.029168739 34:0.95113014 35:0.87086742 36:0.16992506 37:0.95109829 38:0.24199398 39:0.0023552318 40:0.91265583 41:0.048274768 42:0.30902911 43:0.13966292 44:0.019386602 45:0.13854347 
-0 0.11578087892935865 0.24834034257740464 0.010424924819015156 0.058924558600038403 1:0.27761433 2:0.45028444 3:0.25936591 4:0.16267617 5:0.88634274 6:0.50833444 7:0.38255088 8:0.46117592 9:0.43010373 10:0.19651475 11:0.65554044 12:0.81629273 13:0.66963244 14:0.35461692 15:0.59492278 16:0.5522456 17:0.49660481 18:0.3529411 19:0.41688784 20:0.40771002 21:0.59388251 22:0.73938729 23:0.72823407 24:0.13945212 25:0.54037358 26:0.37313167 27:0.43903711 28:0.66745333 29:0.16443864 30:0.40493751 31:0.3807417 32:0.37042579 33:0.016803937 34:0.88063546 35:0.74588824 36:0.1296133 37:0.95176187 38:0.24889776 39:0.0017749951 40:0.91223595 41:0.042115479 42:0.30852821 43:0.22142848 44:0.015459367 45:0.12433437 
-0 -0 0 0.11225332503868397 0 1:0.2566828 2:0.36821933 3:0.00010420436 4:0.4833902 5:0.8944599 6:0.008476637 7:0.2766516 8:0.54342757 9:2.8462564e-06 10:0.60795097 11:0.0010561287 12:0.82951677 13:0.59539595 14:2.9859664e-05 15:0.0042313293 16:0.51699819 17:0.73804072 18:3.1889984e-06 19:0.41201143 20:0.61436145 21:0.0013497056 22:0.41263431 23:0.26556397 24:0.00010771883 25:0.27661588 26:0.0099137294 27:0.49338908 28:0.3122227 29:3.5398488e-05 30:0.0050679093 31:0.63353652 32:0.49119597 33:3.4634349e-05 34:0.61713565 35:0.89308314 36:0.0058660505 37:0.99739387 38:0.17302601 39:8.6049838e-08 40:0.89250753 41:0.00027789306 42:0.33875598 43:0.26669376 44:6.6012531e-06 45:0.0025677715 
-0 -0 0 1.0420493756353491 0 1:0.25666996 2:0.4986149 3:7.4987227e-05 4:0.39271021 5:0.67887344 6:0.0069567387 7:0.27687337 8:0.68313297 9:2.435923e-06 10:0.61150684 11:0.00094329877 12:0.83065804 13:0.76822558 14:2.4766534e-05 15:0.0037600114 16:0.51790286 17:0.59984321 18:4.2541748e-06 19:0.57086031 20:0.71819035 21:0.0016174366 22:0.41237348 23:0.32265579 24:9.926434e-05 25:0.80229573 26:0.0094983746 27:0.48713329 28:0.42228517 29:2.8874283e-05 30:0.0044993778 31:0.64023226 32:0.33123449 33:0.00019061397 34:0.001793519 35:0.028638281 36:0.013787391 37:0.99724402 38:0.3510673 39:1.1085085e-06 40:0.98457202 41:0.00103711 42:0.34555458 43:0.46766856 44:3.3543952e-06 45:0.001829981 
-0.46802941279143501 -0 0 0 0 1:0.25847827 2:0.64485544 3:6.127657e-05 4:0.43877069 5:0.50408441 6:0.0061455016 7:0.27615175 8:0.82895788 9:2.6996253e-06 10:0.61509028 11:0.0010166047 12:0.83040903 13:0.46374391 14:4.720486e-05 15:0.005603137 16:0.51869939 17:0.28197278 18:2.1483889e-05 19:0.42586987 20:0.47890234 21:0.0041574195 22:0.40430809 23:0.49422385 24:0.00012087927 25:0.46043869 26:0.010529145 27:0.49079287 28:0.44968726 29:3.8058532e-05 30:0.0052848868 31:0.63948258 32:0.45036542 33:1.9000805e-05 34:0.13569652 35:0.42524314 36:0.0043399279 37:0.99774259 38:0.097314639 39:1.4848421e-07 40:0.89335165 41:0.000369786 42:0.34889528 43:0.25091213 44:3.7499078e-06 45:0.0019349482 
-0.13868743156922927 -0 0 0 0 1:0.25604607 2:0.49075856 3:7.0262431e-05 4:0.39550608 5:0.70667156 6:0.0066858083 7:0.27617941 8:0.80851133 9:2.2388752e-06 10:0.53747407 11:0.00088646941 12:0.83012792 13:0.19742341 14:5.3200256e-05 15:0.0060187231 16:0.52042262 17:0.54382486 18:1.5355943e-05 19:0.47418647 20:0.51616729 21:0.0034456773 22:0.4092984 23:0.50189735 24:0.00017979297 25:0.41790103 26:0.012942593 27:0.48989001 28:0.48739004 29:3.4464636e-05 30:0.0049898612 31:0.63919523 32:0.44349565 33:3.486191e-05 34:0.19771768 35:0.73740104 36:0.0058853528 37:0.99778379 38:0.30686436 39:9.7447772e-08 40:0.70715286 41:0.00029669121 42:0.34885936 43:0.22854808 44:4.1829183e-06 45:0.0020436989 
-0.86571185494534264 -0.11994888352297453 0 0 0 1:0.257685 2:0.48345165 3:0.0001232719 4:0.47224866 5:0.56898286 6:0.0093587461 7:0.27728961 8:0.63740561 9:3.6224418e-06 10:0.49164571 11:0.0012528417 12:0.82849339 13:0.6761328 14:5.425985e-05 15:0.0060897813 16:0.51696179 17:0.50534479 18:1.6411776e-05 19:0.54123516 20:0.3612215 21:0.0035771615 22:0.39983842 23:0.54682251 24:9.4128224e-05 25:0.50988808 26:0.009237382 27:0.48994218 28:0.5076536 29:2.5209964e-05 30:0.0041524381 31:0.64578674 32:0.4989908 33:1.1203974e-05 34:0.14031857 35:0.50218161 36:0.0033281637 37:0.99736364 38:0.3721283 39:7.5874382e-08 40:0.84603187 41:0.00026003116 42:0.35601962 43:0.043405645 44:3.4381152e-06 45:0.0018526957 
-2.0411256283439152 -0 0 0 1.6450471621965526 1:0.25668556 2:0.36278709 3:0.00011873056 4:0.48664418 5:0.51120901 6:0.0091550218 7:0.27801503 8:0.58448052 9:4.2306648e-06 10:0.51772162 11:0.0013948201 12:0.8302987 13:0.54061125 14:5.4581629e-05 15:0.0061112277 16:0.5167806 17:0.59744981 18:2.1699923e-05 19:0.47268416 20:0.3237753 21:0.0041805398 22:0.39085843 23:0.61442242 24:1.5955326e-05 25:0.61941677 26:0.0035440225 27:0.48777131 28:0.70335641 29:2.7706166e-05 30:0.0043912204 31:0.64472918 32:0.49370319 33:8.6186873e-05 34:0.0084337338 35:0.30408247 36:0.0092646973 37:0.99761725 38:0.47615659 39:3.9017114e-07 40:0.77625884 41:0.00060896481 42:0.35686333 43:0.35787576 44:1.3367563e-06 45:0.0011546613 
-0 -0 0.17446816718795921 0 0 1:0.25539634 2:0.76384745 3:1.3038193e-05 4:0.42293829 5:0.37717778 6:0.002169368 7:0.27769222 8:0.88102812 9:8.8062576e-07 10:0.52285889 11:0.00042622254 12:0.82892456 13:0.79699264 14:8.9733833e-06 15:0.0018973448 16:0.52210019 17:0.73075015 18:2.5151989e-06 19:0.63526521 20:0.21166309 21:0.0011582765 22:0.4104071 23:0.62521095 24:1.8766092e-05 25:0.10867161 26:0.003879523 27:0.49126276 28:0.65074733 29:1.7368046e-05 30:0.0033165249 31:0.61809839 32:0.53970842 33:1.5948615e-06 34:0.80353065 35:0.87191823 36:0.001243859 37:0.9994578 38:0.35057833 39:3.2808415e-08 40:0.99145152 41:0.00016594507 42:0.33901726 43:0.38633798 44:1.4510855e-06 45:0.0012030897 
-1.4654081324251484 -0.035244208292356236 0 1.2430541792465466 1.2334306227198444 1:0.25475007 2:0.65067837 3:2.4040681e-05 4:0.43106686 5:0.60904412 6:0.0033468478 7:0.27813242 8:0.65385185 9:1.7535069e-06 10:0.54140451 11:0.00073767822 12:0.83012171 13:0.63440786 14:9.7967286e-06 15:0.0020194456 16:0.52023283 17:0.52073741 18:1.9055582e-06 19:0.43970132 20:0.77390168 21:0.00096376994 22:0.41066454 23:0.40161593 24:4.2517949e-05 25:0.13434578 26:0.0060602625 27:0.49108218 28:0.20829339 29:1.5167967e-05 30:0.0030508731 31:0.6134891 32:0.26987362 33:4.3792695e-06 34:0.013934274 35:0.060917261 36:0.0020736093 37:0.99942899 38:0.1401698 39:2.0627597e-08 40:0.98331209 41:0.0001286172 42:0.3353632 43:0.096362172 44:1.3261838e-07 45:0.00036264858 
-0.092192125590669458 -0 0 0 0 1:0.25601144 2:0.35763256 3:3.8238179e-05 4:0.55201043 5:0.82508473 6:0.0045578848 7:0.27787401 8:0.78583491 9:1.1155046e-06 10:0.73114705 11:0.00051717473 12:0.83008737 13:0.3352244 14:4.8205216e-05 15:0.005674171 16:0.51942839 17:0.45707801 18:1.0542027e-05 19:0.52797253 20:0.22234443 21:0.0027802185 22:0.41097957 23:0.67875253 24:7.8782727e-06 25:0.38624976 26:0.0023679279 27:0.4900429 28:0.62233801 29:2.1356108e-05 30:0.0037601493 31:0.62305845 32:0.14201769 33:4.0120933e-06 34:0.74146362 35:0.85166604 36:0.0019839621 37:0.99890675 38:0.10440254 39:5.102348e-08 40:0.98116775 41:0.00021056129 42:0.339342 43:0.061267544 44:2.4512137e-06 45:0.0015641151 
-0 -0 0.29225474042950556 0 0 1:0.25726689 2:0.73731246 3:1.3113973e-05 4:0.3752896 5:0.53272798 6:0.0021786317 7:0.27753153 8:0.86923745 9:8.6422699e-07 10:0.60109898 11:0.00041962358 12:0.83150398 13:0.86848509 14:3.9372721e-06 15:0.0010211478 16:0.51717332 17:0.81022188 18:1.2279715e-06 19:0.74171201 20:0.44826688 21:0.00071170829 22:0.4116435 23:0.31143113 24:2.2743909e-05 25:0.34812568 26:0.0043143784 27:0.49366235 28:0.79271986 29:1.8627565e-06 30:0.00070751037 31:0.62173143 32:0.48139899 33:2.7743076e-05 34:0.98604184 35:0.99747529 36:0.0052481164 37:0.99905049 38:0.43334161 39:1.7786859e-08 40:0.995129 41:0.00011842819 42:0.33920657 43:0.43784689 44:4.0163131e-06 45:0.0020025545 
-0 -0.086811291231632157 0 0 0 1:0.25756688 2:0.81988062 3:0.00010265386 4:0.45364668 5:0.74696077 6:0.0084015972 7:0.27635203 8:0.66773162 9:6.0995649e-06 10:0.53784374 11:0.0017830985 12:0.82983305 13:0.72576999 14:4.5274548e-05 15:0.0054639976 16:0.52017349 17:0.57609223 18:2.9860457e-05 19:0.69036828 20:0.54141657 21:0.0049830549 22:0.41394636 23:0.65849339 24:0.0001142306 25:0.28179551 26:0.010222659 27:0.49167305 28:0.66883552 29:5.9510013e-05 30:0.0068166037 31:0.62457353 32:0.44049515 33:4.0981713e-05 34:0.15773532 35:0.39791351 36:0.0063826585 37:0.99947698 38:0.5201364 39:2.8571507e-07 40:0.92682351 41:0.00051888381 42:0.34526981 43:0.36979933 44:6.4008286e-06 45:0.002528467 
-0.45702007740569378 -0 0 0 0 1:0.25654878 2:0.4850336 3:0.00013939046 4:0.56902288 5:0.86389709 6:0.0100539 7:0.27695022 8:0.71481892 9:4.6368043e-06 10:0.66493713 11:0.0014847644 12:0.82980103 13:0.44067161 14:5.8575987e-05 15:0.0063725389 16:0.52402689 17:0.28013903 18:2.5165095e-05 19:0.55366323 20:0.17890385 21:0.0045369281 22:0.41285844 23:0.45073614 24:0.00022214058 25:0.12670512 26:0.014438138 27:0.4857132 28:0.40195289 29:4.8889215e-05 30:0.006099867 31:0.61871074 32:0.4496037 33:0.00055689382 34:0.23081195 35:0.97742399 36:0.023579869 37:0.99991121 38:0.15250944 39:1.1657728e-07 40:0.3663313 41:0.00032592499 42:0.34316417 43:0.38396671 44:2.4101578e-05 45:0.0049078203 
-0.22726827175764364 -0.017011280282226485 0 0 0.24695728448770371 1:0.25614244 2:0.44825569 3:0.00015917498 4:0.57308453 5:0.93981869 6:0.010855602 7:0.2768605 8:0.62853788 9:4.0925146e-06 10:0.57626215 11:0.0013633814 12:0.83012924 13:0.38814753 14:5.5009289e-05 15:0.0061396369 16:0.52327388 17:0.56156866 18:2.9184442e-05 19:0.30507046 20:0.19421319 21:0.0049210835 22:0.41208894 23:0.34507385 24:0.00019042792 25:0.35058635 26:0.013333409 27:0.48665126 28:0.66663884 29:2.8299438e-05 30:0.0044464223 31:0.61441813 32:0.33920308 33:0.0002649891 34:0.82721458 35:0.98729496 36:0.01625962 37:0.99994794 38:0.16124721 39:4.3196196e-08 40:0.90309251 41:0.00019256247 42:0.33972682 43:0.27907091 44:1.9159451e-05 45:0.0043756347 
-0 -0 0 2.5079703818799444 0.94052361695459141 1:0.2574845 2:0.5227137 3:7.6602254e-05 4:0.58295071 5:0.94371361 6:0.0070474735 7:0.27696076 8:0.64887498 9:3.6470593e-06 10:0.75081077 11:0.0012587764 12:0.83136542 13:0.64247229 14:3.3958829e-05 15:0.0045838649 16:0.51693727 17:0.4367032 18:2.0563337e-05 19:0.32973002 20:0.25883668 21:0.0040575882 22:0.40945185 23:0.47297232 24:6.914271e-05 25:0.49113323 26:0.0078519391 27:0.49210542 28:0.5239884 29:3.719705e-05 30:0.0052154505 31:0.62195504 32:0.50693583 33:3.0764443e-05 34:0.74354077 35:0.87188287 36:0.0055275207 37:0.99891097 38:0.20084328 39:2.69572e-07 40:0.97304698 41:0.00050357055 42:0.33845413 43:0.32260319 44:1.3039872e-05 45:0.0036095589 
-0 -0 0.057607342407696167 0 0 1:0.25491688 2:0.73836454 3:1.3505744e-05 4:0.46717809 5:0.62202691 6:0.0022261941 7:0.27664209 8:0.89716187 9:9.6666947e-07 10:0.51833107 11:0.00046029045 12:0.82866039 13:0.83678439 14:8.8543484e-06 15:0.0018793185 16:0.52124827 17:0.81252364 18:1.9929721e-06 19:0.70707996 20:0.61947995 21:0.00099320826 22:0.40778525 23:0.55059338 24:2.5981978e-05 25:0.64667614 26:0.0046411797 27:0.49431642 28:0.60588455 29:6.3135069e-06 30:0.0017287371 31:0.61635373 32:0.47314953 33:2.681098e-05 34:0.0029579085 35:0.0095075371 36:0.0051588777 37:0.99845961 38:0.36142316 39:2.1910587e-07 40:0.99852852 41:0.00045248047 42:0.33128109 43:0.32151623 44:1.5613792e-06 45:0.0012480312 
-0 -0 0.39822211386234219 0 0 1:0.25550776 2:0.70044837 3:3.4096474e-05 4:0.4443603 5:0.41527914 6:0.0042292411 7:0.27702528 8:0.82921452 9:2.6753082e-06 10:0.6522304 11:0.0010099677 12:0.82951051 13:0.90770152 14:1.3859644e-05 15:0.0025676331 16:0.51756895 17:0.72552511 18:4.4951083e-06 19:0.60758702 20:0.67321962 21:0.0016734424 22:0.41553561 23:0.56755592 24:4.4165265e-05 25:0.29231433 26:0.0061851063 27:0.48917013 28:0.57298505 29:2.122256e-05 30:0.0037459698 31:0.61676283 32:0.28356106 33:2.9166718e-05 34:0.035996174 35:0.071183652 36:0.0053815705 37:0.99846309 38:0.31163764 39:4.4425644e-07 40:0.99406621 41:0.00065084162 42:0.33158923 43:0.32818771 44:5.0812804e-06 45:0.0022526503 
-0 -0 0.20846081618328319 0 0 1:0.25613034 2:0.64601491 3:3.1207509e-05 4:0.47490911 5:0.76376404 6:0.0039892128 7:0.27673434 8:0.81322572 9:8.9438277e-07 10:0.55835194 11:0.00043173165 12:0.8303342 13:0.76935811 14:8.3931201e-06 15:0.0018085222 16:0.51972907 17:0.64498722 18:3.184536e-06 19:0.44829231 20:0.17553233 21:0.0013485028 22:0.41571515 23:0.50254865 24:2.792033e-05 25:0.51725973 26:0.0048271897 27:0.49054448 28:0.58875428 29:1.0797717e-05 30:0.0024626506 31:0.61606361 32:0.13526042 33:6.9357278e-06 34:0.91976475 35:0.98060462 36:0.0026145082 37:0.99888647 38:0.31110006 39:8.6939394e-09 40:0.97833457 41:7.8702163e-05 42:0.33368282 43:0.17467634 44:8.4449483e-07 45:0.00091744344 
-0.13874473310738172 -0 0 0 0.8838776433061345 1:0.2570961 2:0.43141544 3:7.4925924e-05 4:0.46370076 5:0.8841857 6:0.0069532763 7:0.27639285 8:0.61835903 9:2.5591972e-06 10:0.65519601 11:0.0009779392 12:0.82934413 13:0.34275973 14:2.9781287e-05 15:0.0042243743 16:0.52235867 17:0.57543879 18:5.7434474e-06 19:0.48410082 20:0.59728265 21:0.0019432143 22:0.40899117 23:0.46708238 24:5.6325098e-05 25:0.38471123 26:0.0070428427 27:0.49071302 28:0.62735509 29:1.3591211e-05 30:0.0028491209 31:0.62591764 32:0.25525143 33:1.3172207e-05 34:0.66470262 35:0.80826486 36:0.0036102846 37:0.99833376 38:0.35510664 39:1.5863853e-07 40:0.97336225 41:0.00038273361 42:0.33791281 43:0.27700432 44:6.7792116e-06 45:0.0026021731 
-0 -0 0 0 1.5500031350030548 1:0.2547292 2:0.59637946 3:3.4983147e-05 4:0.62283845 5:0.83573724 6:0.0043010564 7:0.27580679 8:0.84570224 9:1.163533e-06 10:0.6877957 11:0.00053502206 12:0.82850926 13:0.7999654 14:1.3761649e-05 15:0.0025553002 16:0.5207366 17:0.71476794 18:3.6009763e-06 19:0.22010381 20:0.67151129 21:0.0014575859 22:0.40995093 23:0.75898788 24:2.5636091e-05 25:0.23684065 26:0.0046072725 27:0.4910862 28:0.65414361 29:8.4256432e-06 30:0.0020964187 31:0.62526975 32:0.30726857 33:2.0087612e-06 34:0.77895786 35:0.90969113 36:0.0013982755 37:0.99805434 38:0.64842141 39:1.0270987e-08 40:0.96642669 41:8.6700808e-05 42:0.33544575 43:0.55672485 44:5.7526419e-07 45:0.00075694118 
-0 -0 0 0.52977836451047489 0.85898077221839142 1:0.25424928 2:0.46049556 3:6.888607e-05 4:0.49284993 5:0.6251974 6:0.0066052677 7:0.27589652 8:0.71318487 9:2.4841831e-06 10:0.78467564 11:0.00095694035 12:0.82864854 13:0.53339016 14:2.2423522e-05 15:0.0035281438 16:0.51790523 17:0.21962954 18:1.4655246e-05 19:0.42740796 20:0.099785604 21:0.0033559494 22:0.40767008 23:0.46236497 24:6.5877183e-05 25:0.50991622 26:0.0076534498 27:0.49256287 28:0.33876962 29:4.0882942e-05 30:0.0055073147 31:0.62160789 32:0.058038131 33:4.2318535e-05 34:0.66297669 35:0.95072895 36:0.0064862337 37:0.99844161 38:0.40410954 39:2.6873276e-08 40:0.85141056 41:0.00014881718 42:0.33498048 43:0.15209235 44:3.4648066e-06 45:0.0018598793 
-0 -0 0.40557611415060257 0 0 1:0.25492757 2:0.67425797 3:6.3129533e-05 4:0.50838028 5:0.65321968 6:0.0062598347 7:0.27617652 8:0.77985099 9:2.6776948e-06 10:0.7934918 11:0.0010106201 12:0.82996188 13:0.46597488 14:2.0071986e-05 15:0.0032839618 16:0.51685023 17:0.43817703 18:7.6864779e-06 19:0.66427802 20:0.18603076 21:0.0023122244 22:0.41397064 23:0.58186792 24:7.4228985e-05 25:0.34293063 26:0.0081520145 27:0.49503068 28:0.44451287 29:2.2349161e-05 30:0.0038642819 31:0.62259137 32:0.38181471 33:9.0345029e-05 34:0.84296597 35:0.99490931 36:0.0094860127 37:0.9985082 38:0.41252461 39:9.4672532e-09 40:0.89060717 41:8.2705461e-05 42:0.33622797 43:0.36928156 44:6.1327643e-06 45:0.0024749229 
-1.0673602913977993 -0.33564785638369227 0 0 0 1:0.25485743 2:0.63722398 3:1.2159039e-05 4:0.47489162 5:0.74815528 6:0.0020603261 7:0.27773393 8:0.71635228 9:1.3992469e-06 10:0.40803358 11:0.00061941253 12:0.82676641 13:0.6956973 14:9.0180549e-06 15:0.0019040845 16:0.5210109 17:0.55924407 18:4.4871955e-06 19:0.40734719 20:0.52933688 21:0.0016716259 22:0.40871679 23:0.55828061 24:1.2713531e-05 25:0.26720314 26:0.00311845 27:0.48979411 28:0.77534253 29:2.2859854e-06 30:0.00082979449 31:0.62249532 32:0.41440032 33:1.1748448e-05 34:0.88194995 35:0.9706821 36:0.0034085312 37:0.99841082 38:0.23378135 39:1.9082876e-08 40:0.96835738 41:0.00012316931 42:0.33547595 43:0.2998026 44:1.8769247e-06 45:0.0013684887 
-0 -0.12904062620007603 0 0 2.0407707945118014 1:0.25655541 2:0.61304071 3:2.1292728e-05 4:0.47698154 5:0.49599936 6:0.0030787544 7:0.27809193 8:0.4894807 9:1.3840297e-06 10:0.52622782 11:0.00061411422 12:0.82930027 13:0.80387209 14:9.8519466e-06 15:0.0020274797 16:0.5202302 17:0.78122317 18:2.8822626e-06 19:0.54674599 20:0.58648294 21:0.0012651257 22:0.40964155 23:0.6356712 24:1.8528354e-05 25:0.49453608 26:0.0038521516 27:0.49223784 28:0.64804076 29:8.0507607e-06 30:0.0020344505 31:0.62052079 32:0.24350582 33:4.1964042e-06 34:0.071877597 35:0.28595987 36:0.0020294526 37:0.99871871 38:0.23569623 39:1.9565897e-08 40:0.91701877 41:0.00012489547 42:0.33590713 43:0.22263327 44:1.727528e-07 45:0.00041411562 
-0 -0.0086852191223429041 0 0.26657163283145985 0.97733423118601781 1:0.25728247 2:0.59261473 3:2.3683135e-05 4:0.65053154 5:0.73534323 6:0.0033127408 7:0.27744783 8:0.76919275 9:1.9399849e-06 10:0.54164039 11:0.00079646298 12:0.82819623 13:0.67210373 14:1.527665e-05 15:0.0027418851 16:0.51946004 17:0.44358889 18:5.2787246e-06 19:0.2214538 20:0.74625172 21:0.0018464005 22:0.40880147 23:0.4299864 24:4.2011632e-05 25:0.28758202 26:0.0060214091 27:0.49253077 28:0.62491958 29:7.2439004e-06 30:0.0018965278 31:0.6194665 32:0.26471486 33:8.1171593e-06 34:0.035156201 35:0.11324746 36:0.0028299929 37:0.99834013 38:0.12535153 39:5.8913232e-08 40:0.97666885 41:0.00022735966 42:0.33270763 43:0.16087639 44:4.5381295e-07 45:0.00067213593 
-0 -0 0.4421537703522419 0 0 1:0.25751081 2:0.7793813 3:6.9617069e-06 4:0.55451938 5:0.5581597 6:0.0013423313 7:0.2779085 8:0.72517256 9:1.0943415e-06 10:0.54933173 11:0.00050923455 12:0.83069981 13:0.86086279 14:4.6854013e-06 15:0.0011701029 16:0.51885342 17:0.57341244 18:4.3951275e-06 19:0.35671449 20:0.22230316 21:0.001650378 22:0.41054259 23:0.6522091 24:8.7877544e-06 25:0.5608998 26:0.0025234455 27:0.4905806 28:0.8153008 29:9.3674647e-06 30:0.0022468317 31:0.62547967 32:0.50909289 33:4.4304045e-06 34:0.94517065 35:0.98700582 36:0.0020857912 37:0.99859232 38:0.33298987 39:7.2524289e-09 40:0.98504976 41:7.0747307e-05 42:0.33929959 43:0.39109584 44:9.6069093e-07 45:0.00097862787 
-0 -0 0 0.058845722452521489 0 1:0.25568718 2:0.60973803 3:2.6681409e-05 4:0.57407051 5:0.69555166 6:0.0035922347 7:0.27776019 8:0.70563944 9:1.2906774e-06 10:0.60344114 11:0.00058117319 12:0.82922165 13:0.7417564 14:1.2241986e-05 15:0.0023589041 16:0.51957082 17:0.86551615 18:1.3278209e-06 19:0.33775522 20:0.49566659 21:0.00075202462 22:0.41057985 23:0.69859503 24:1.8885468e-05 25:0.27955222 26:0.0038932024 27:0.49181651 28:0.27994393 29:1.9809674e-05 30:0.0035932546 31:0.62260972 32:0.07242678 33:1.0693062e-05 34:0.012565036 35:0.30042603 36:0.0032509546 37:0.99883702 38:0.030715582 39:2.6079592e-08 40:0.79752523 41:0.00014638975 42:0.33844402 43:0.44020897 44:4.7829648e-08 45:0.00021718231 
-0 -0 0 0.98675539204600093 0.92638514882408096 1:0.25728053 2:0.5766491 3:4.5090226e-05 4:0.6072407 5:0.79877232 6:0.0050677952 7:0.2766949 8:0.65669481 9:1.982129e-06 10:0.60685182 11:0.00080945486 12:0.82850647 13:0.44454502 14:4.2032918e-05 15:0.0052237867 16:0.52188655 17:0.51995026 18:8.936719e-06 19:0.37485321 20:0.20343074 21:0.0025260234 22:0.4082019 23:0.60866688 24:1.4316997e-05 25:0.42359242 26:0.0033348844 27:0.48984627 28:0.63581477 29:9.4039933e-06 30:0.0022525239 31:0.65026241 32:0.3514003 33:4.4392931e-06 34:0.40687406 35:0.88626868 36:0.0020879016 37:0.99597921 38:0.45793543 39:9.0969271e-09 40:0.73990619 41:8.0809037e-05 42:0.34958587 43:0.57074151 44:1.2276338e-06 45:0.0011064659 
-1.4767905501582308 -0.013269676770161307 0 0 0 1:0.25662418 2:0.55363794 3:4.1539733e-05 4:0.63258811 5:0.84768148 6:0.0048083945 7:0.27687691 8:0.75217244 9:1.8973633e-06 10:0.61382191 11:0.00078321691 12:0.82936151 13:0.48141941 14:3.7725932e-05 15:0.0048905081 16:0.5217705 17:0.51523082 18:8.3619128e-06 19:0.24568089 20:0.22647167 21:0.0024296612 22:0.40980753 23:0.86767451 24:1.2605394e-05 25:0.56284247 26:0.0031033834 27:0.48936074 28:0.73870126 29:6.6690603e-06 30:0.0017940638 31:0.65000216 32:0.47154209 33:1.0201632e-05 34:0.4726778 35:0.96065445 36:0.0031749291 37:0.99596987 38:0.29379618 39:6.7926917e-09 40:0.66886352 41:6.8051873e-05 42:0.34905357 43:0.27143613 44:2.4588053e-06 45:0.0015665377 
-0 -0.015987721094036265 0 0 0 1:0.25766888 2:0.47097179 3:6.6456316e-05 4:0.38777789 5:0.72159437 6:0.0064611994 7:0.27623739 8:0.69680793 9:2.6454521e-06 10:0.57958899 11:0.0010017858 12:0.82851667 13:0.64643308 14:2.6139614e-05 15:0.0038911935 16:0.52057043 17:0.61478564 18:4.4142397e-06 19:0.35215531 20:0.37584939 21:0.001654806 22:0.41048162 23:0.68721061 24:2.4306087e-05 25:0.46835924 26:0.004474732 27:0.49094174 28:0.57663519 29:2.0405767e-05 30:0.0036583 31:0.64925948 32:0.26737493 33:5.9770989e-06 34:0.055732268 35:0.19648844 36:0.0024257436 37:0.99583279 38:0.17189854 39:8.0718761e-08 40:0.95236785 41:0.0002686748 42:0.34658321 43:0.17530581 44:1.2711839e-06 45:0.0011259474 
-0 -0.11983836208496094 0 0 0 1:0.25772471 2:0.714575 3:5.7482686e-06 4:0.56978063 5:0.58931942 6:0.0011507125 7:0.27653877 8:0.71355378 9:1.853455e-06 10:0.58392889 11:0.00076945567 12:0.83051629 13:0.54000301 14:1.2878355e-05 15:0.0024423609 16:0.51983457 17:0.72725906 18:2.2024285e-06 19:0.38222396 20:0.56046692 21:0.0010615013 22:0.41030547 23:0.65989387 24:4.5861757e-06 25:0.51892453 26:0.0017147579 27:0.48944099 28:0.76231304 29:2.7299177e-06 30:0.00094968743 31:0.65575564 32:0.35325594 33:5.7931696e-08 34:0.22874391 35:0.3592228 36:0.00022226912 37:0.99501461 38:0.12671411 39:2.9232846e-09 40:0.97934768 41:4.0469277e-05 42:0.35021496 43:0.08011502 44:1.4563963e-07 45:0.000380108 
-0.32920976582873912 -0 0 0 0.7090730415391886 1:0.25639307 2:0.77276977 3:7.9457353e-06 4:0.62835115 5:0.57695814 6:0.001489853 7:0.27674393 8:0.76378148 9:2.0408312e-06 10:0.67089817 11:0.00082738059 12:0.82965196 13:0.54866521 14:2.3635497e-05 15:0.003649406 16:0.52427387 17:0.43390017 18:7.4231302e-06 19:0.62197426 20:0.85576592 21:0.0022650892 22:0.40992947 23:0.58768379 24:8.3007086e-06 25:0.57816393 26:0.0024411922 27:0.48465585 28:0.30447531 29:1.5503017e-05 30:0.0030924521 31:0.65297922 32:0.42545042 33:0.0002249437 34:0.030830063 35:0.93971548 36:0.014979234 37:0.99548402 38:0.32377217 39:4.2033007e-07 40:0.17009339 41:0.00063264968 42:0.34976105 43:0.35502046 44:1.0592025e-05 45:0.0032530212 
-0 -0 0 0.74870981146578841 0 1:0.2565532 2:0.65425809 3:2.2698117e-05 4:0.55775037 5:0.55564452 6:0.0032176098 7:0.27616606 8:0.65619444 9:2.8356095e-06 10:0.59749556 11:0.0010532869 12:0.82857347 13:0.70273262 14:1.9578843e-05 15:0.0032311293 16:0.52612371 17:0.76261557 18:1.430667e-06 19:0.5644697 20:0.47833702 21:0.00079224439 22:0.40559361 23:0.3041836 24:4.6469272e-05 25:0.50216157 26:0.0063558953 27:0.48690095 28:0.69436497 29:6.8717657e-06 30:0.0018306242 31:0.64922527 32:0.45432349 33:8.2639471e-05 34:0.95387474 35:0.99501229 36:0.0090716309 37:0.99556681 38:0.29331561 39:5.8840988e-08 40:0.97743774 41:0.00022721111 42:0.3444271 43:0.3814439 44:2.5803476e-05 45:0.0050781969 
-0.20300650105197213 -0 -0 0 0 1:0.24408129 2:0.48007825 3:3.1226298e-05 4:0.70511206 5:0.16331131 6:0.0039908053 7:0.24700836 8:0.74986064 9:1.2954828e-06 10:0.35710305 11:0.00058288772 12:0.82637434 13:0.51947121 14:8.816701e-06 15:0.0018735968 16:0.52125381 17:0.66071417 18:3.8918725e-06 19:0.26740929 20:0.36213654 21:0.0015303231 22:0.41167635 23:0.40893846 24:9.1488988e-06 25:0.67915369 26:0.0025830111 27:0.48964403 28:0.68857836 29:3.3419505e-06 30:0.0011036179 31:0.0019780111 32:0.53038745 33:4.5550518e-06 34:0.96735894 35:0.039071922 36:0.0021151947 37:0.26743496 38:0.63406601 39:9.5928096e-07 40:0.13908037 41:0.0009636894 42:0.019488751 43:0.28489819 44:7.4908622e-08 45:0.00027217582 
-0 -0 -0.098935324141697992 0 0 1:0.2452861 2:0.80033808 3:3.5434266e-06 4:0.50705972 5:0.69740253 6:0.00076795383 7:0.24584377 8:0.91270888 9:8.9511278e-07 10:0.49979191 11:0.00043202331 12:0.82690189 13:0.8998923 14:1.0710207e-06 15:0.00033743949 16:0.5207002 17:0.76671954 18:3.2211592e-07 19:0.75638862 20:0.19333115 21:0.00025400515 22:0.41108525 23:0.87933387 24:2.071951e-07 25:0.19019133 26:0.00018133851 27:0.48951482 28:0.79137522 29:2.230654e-06 30:0.00081428507 31:0.0039690121 32:0.34003034 33:4.1023594e-07 34:0.99711444 35:0.982258 36:0.00062160706 37:0.26769436 38:0.32402462 39:8.7301325e-07 40:0.99463269 41:0.00091861778 42:0.017785641 43:0.35060123 44:1.575101e-08 45:0.00012398924 
-0 -0 -0 0.13539184272025376 0 1:0.24542119 2:0.64679946 3:4.0036953e-05 4:0.77934291 5:0.55186759 6:0.0046955433 7:0.24549103 8:0.46447903 9:6.3985e-06 10:0.55257739 11:0.0018399551 12:0.82586038 13:0.7081279 14:1.7204818e-05 15:0.0029679022 16:0.5206427 17:0.42093703 18:8.6819405e-06 19:0.62783275 20:0.096950928 21:0.0024836946 22:0.41075532 23:0.41454478 24:9.8981762e-06 25:0.47392995 26:0.0027030416 27:0.49119454 28:0.37622121 29:3.4298574e-05 30:0.0049758749 31:0.0034650614 32:0.065923219 33:8.1587181e-06 34:0.95663678 35:0.7313521 36:0.002837277 37:0.26913687 38:0.050851306 39:1.1185802e-05 40:0.89286431 41:0.0033287252 42:0.018797496 43:0.31125331 44:2.1841655e-07 45:0.00046583053 
-0.20830058462003911 -0.15031521118947541 -0 0 0.17360864155190853 1:0.24614459 2:0.70528861 3:8.1236786e-05 4:0.59296716 5:0.5180062 6:0.0073029005 7:0.24673579 8:0.68844257 9:1.7986297e-05 10:0.24394379 11:0.0035016587 12:0.82762092 13:0.84930994 14:2.878514e-05 15:0.0041352205 16:0.51892537 17:0.59300529 18:6.2599374e-05 19:0.23306222 20:0.56302628 21:0.0074245429 22:0.41160011 23:0.69171855 24:3.4263123e-05 25:0.38398182 26:0.0053948469 27:0.48699229 28:0.45743863 29:0.0001351292 30:0.010710485 31:0.0091372086 32:0.48736929 33:0.00016637533 34:0.4120329 35:0.053779549 36:0.012879728 37:0.27075588 38:0.11372442 39:3.4804563e-05 40:0.800847 41:0.0058837705 42:0.014355188 43:0.28575619 44:1.4892841e-05 45:0.0038576073 
-0.53475502408525777 -0 -0 0 0 1:0.24535487 2:0.79095201 3:7.2769771e-05 4:0.61980353 5:0.50923751 6:0.006830628 7:0.24683883 8:0.59001961 9:1.936654e-05 10:0.41346257 11:0.0036586972 12:0.82748719 13:0.71585197 14:4.3030302e-05 15:0.0052986092 16:0.52296767 17:0.54486218 18:5.6999384e-05 19:0.38272106 20:0.43004102 21:0.0070629546 22:0.40861449 23:0.74474101 24:2.7903545e-05 25:0.67493066 26:0.004825607 27:0.49118852 28:0.43660813 29:0.00013275971 30:0.010608371 31:0.0060748649 32:0.21057583 33:0.00055191089 34:0.79296659 35:0.041778137 36:0.023474053 37:0.2698924 38:0.13850418 39:6.1608952e-05 40:0.39422187 41:0.0078333939 42:0.016764425 43:0.16896071 44:2.2503832e-05 45:0.0047423046 
-0 -0 -0 0 0.025954959790742506 1:0.24584414 2:0.76739543 3:6.0038656e-06 4:0.45384603 5:0.67719495 6:0.0011920521 7:0.24694743 8:0.78268936 9:2.0260905e-06 10:0.63127298 11:0.00082289764 12:0.82706253 13:0.8948561 14:2.1485971e-06 15:0.00062148431 16:0.5210647 17:0.51428802 18:5.1981089e-07 19:0.50158989 20:0.44561921 21:0.00037439233 22:0.41149377 23:0.91574212 24:3.8010018e-08 25:0.4126385 26:3.803212e-05 27:0.48867457 28:0.87202003 29:4.4649734e-07 30:0.00020909522 31:0.0044986613 32:0.21542248 33:4.5621935e-08 34:0.98807161 35:0.96201797 36:0.00019526799 37:0.25347267 38:0.18563091 39:1.6140034e-07 40:0.99307527 41:0.00038618302 42:0.011943683 43:0.23793628 44:4.4203569e-09 45:6.4980086e-05 
-0 -0 -0 0 0.74613404018296781 1:0.24612858 2:0.5738788 3:9.5035896e-05 4:0.78714372 5:0.56742144 6:0.0080246975 7:0.24737828 8:0.30191689 9:2.2162986e-05 10:0.68001498 11:0.0039610851 12:0.82691123 13:0.66315486 14:2.6657877e-05 15:0.0039398735 16:0.51955341 17:0.35556627 18:3.9685073e-05 19:0.31471701 20:0.043185689 21:0.0058155078 22:0.40860771 23:0.77052777 24:1.3464119e-05 25:0.7199228 26:0.0032213391 27:0.49351588 28:0.32636538 29:9.3035315e-05 30:0.0087377109 31:0.0033511693 32:0.39287662 33:2.5893763e-05 34:0.98212406 35:0.92700589 36:0.005069536 37:0.25871274 38:0.37519658 39:6.4012963e-05 40:0.98147579 41:0.0079850692 42:0.014929201 43:0.40460357 44:1.4532614e-06 45:0.0012039925 
-0 -0 -0 0.10138629047705509 0 1:0.24578735 2:0.5174533 3:9.956789e-05 4:0.8361097 5:0.49922085 6:0.0082505995 7:0.24721904 8:0.31778305 9:2.2355034e-05 10:0.61054186 11:0.0039811532 12:0.82729218 13:0.62504283 14:2.6502048e-05 15:0.0039252832 16:0.5201574 17:0.40590249 18:3.8468685e-05 19:0.36570106 20:0.063542664 21:0.0057184815 22:0.410088 23:0.59922579 24:2.18021e-05 25:0.59315654 26:0.0042150594 27:0.49171418 28:0.38823149 29:9.5253305e-05 30:0.0088515586 31:0.0035350212 32:0.3349624 33:1.9728724e-05 34:0.96815621 35:0.84891153 36:0.0044226402 37:0.26027101 38:0.28680547 39:3.8434556e-05 40:0.95333502 41:0.0061837959 42:0.015350239 43:0.33081556 44:8.1179728e-07 45:0.00089947737 
-0 -0.065738138654694328 -0 0 0 1:0.24530714 2:0.44679521 3:0.00010240665 4:0.8318237 5:0.46093347 6:0.0083895823 7:0.247046 8:0.31220909 9:2.1591159e-05 10:0.58716905 11:0.0039008269 12:0.82701396 13:0.64836634 14:2.9966324e-05 15:0.0042407803 16:0.52090382 17:0.4319636 18:3.3010638e-05 19:0.35311797 20:0.080584365 21:0.0052630677 22:0.41034883 23:0.54927737 24:2.3290917e-05 25:0.5776134 26:0.0043711303 27:0.49071903 28:0.41654929 29:8.6923576e-05 30:0.0084168543 31:0.0037402101 32:0.31825754 33:1.5677309e-05 34:0.96065238 35:0.76111028 36:0.0039403914 37:0.26111191 38:0.2586737 39:2.3037926e-05 40:0.90737656 41:0.0047840026 42:0.015483111 43:0.1982552 44:4.232664e-07 45:0.00064906882 
-0 -0.17782582665092836 -0 0 0 1:0.24545295 2:0.80752336 3:1.4092815e-06 4:0.42159392 5:0.81526474 6:0.00033677821 7:0.2467296 8:0.81289873 9:3.9380879e-07 10:0.43870181 11:0.00021254862 12:0.82710703 13:0.83371288 14:1.7882067e-06 15:0.00053108804 16:0.52025199 17:0.76839501 18:3.4171753e-07 19:0.56299998 20:0.60414375 21:0.0002667778 22:0.41075247 23:0.7781702 24:2.1041799e-07 25:0.33654193 26:0.00018376871 27:0.49072881 28:0.82895024 29:2.9886336e-07 30:0.00014432721 31:0.0035795695 32:0.38986364 33:4.3079412e-08 34:0.99894518 35:0.90937074 36:0.00018925568 37:0.2554729 38:0.3363077 39:3.6809991e-08 40:0.93067173 41:0.00017663488 42:0.013504685 43:0.37997961 44:5.733763e-11 45:6.2006337e-06 
-0.12002792347170803 -0 -0 0 0 1:0.24549243 2:0.80478511 3:1.4967646e-06 4:0.48432357 5:0.805601 6:0.00035605069 7:0.24657845 8:0.83911913 9:5.6933774e-07 10:0.45887844 11:0.00029431819 12:0.82713825 13:0.82741716 14:1.671663e-06 15:0.0005009468 16:0.52033565 17:0.6902509 18:3.8000875e-07 19:0.66713521 20:0.6044726 21:0.00029113994 22:0.41072361 23:0.81758761 24:2.0066414e-07 25:0.3060225 26:0.00017638632 27:0.49076982 28:0.85060847 29:2.6399327e-07 30:0.00012846965 31:0.0035593094 32:0.41459901 33:4.0278797e-08 34:0.99797355 35:0.94725677 36:0.00018242565 37:0.25541445 38:0.41032296 39:4.112374e-08 40:0.96749625 41:0.00018753037 42:0.01350073 43:0.48074951 44:1.4094536e-10 45:1.0446151e-05 
-0 -0 -0 0.090165576180172083 0.3723477390575094 1:0.24582221 2:0.5507892 3:2.9098738e-05 4:0.90135785 5:0.91581715 6:0.0038076725 7:0.24808531 8:0.2721734 9:1.6389801e-05 10:0.96445133 11:0.0033125823 12:0.82730348 13:0.54358519 14:1.6623482e-05 15:0.0029010031 16:0.52102699 17:0.33198578 18:3.6197389e-05 19:0.81385143 20:0.0079127314 21:0.0055331393 22:0.41135252 23:0.52190104 24:3.5296052e-06 25:0.1573358 26:0.0014590656 27:0.4882737 28:0.50111845 29:6.5971846e-05 30:0.0072220324 31:0.0041806405 32:0.21440375 33:5.2175083e-06 34:0.96931151 35:0.91137128 36:0.0022651217 37:0.25835619 38:0.19324535 39:1.8945966e-05 40:0.98478844 41:0.0043369107 42:0.014049965 43:0.23337062 44:6.0560341e-07 45:0.0007766847 
-0 -0 -0 0 0.0170489565166605 1:0.24530343 2:0.52265676 3:2.6578291e-05 4:0.896213 5:0.88471632 6:0.0035828574 7:0.24677539 8:0.17620915 9:1.6181871e-05 10:0.9303713 11:0.0032873163 12:0.82678548 13:0.52130429 14:1.7272642e-05 15:0.002975641 16:0.52187099 17:0.26349699 18:3.815636e-05 19:0.81990828 20:0.026166863 21:0.0056933237 22:0.41172852 23:0.54431057 24:3.6609778e-06 25:0.15125955 26:0.001492662 27:0.48750727 28:0.35553698 29:6.1495033e-05 30:0.0069433599 31:0.0040217688 32:0.4193461 33:4.2881513e-06 34:0.96374651 35:0.90428734 36:0.0020517246 37:0.25753048 38:0.33485112 39:1.7542328e-05 40:0.98554588 41:0.004172569 42:0.013881926 43:0.37079749 44:6.1309701e-07 45:0.00078148456 
-0.013983485266586536 -0 -0 0 0 1:0.24456554 2:0.65877945 3:9.1877213e-05 4:0.54126376 5:0.44763906 6:0.0078155529 7:0.24722666 8:0.81081501 9:1.1231126e-05 10:0.50003468 11:0.0026144307 12:0.82633916 13:0.61073074 14:5.206756e-05 15:0.0059054544 16:0.51928081 17:0.69318689 18:4.7272498e-05 19:0.55223628 20:0.46390625 21:0.0063557538 22:0.40774903 23:0.64703654 24:3.4878745e-05 25:0.72457626 26:0.005417629 27:0.48926011 28:0.64047905 29:0.00013896718 30:0.010815259 31:0.00069996137 32:0.2743843 33:0.0002077198 34:0.87381188 35:0.0067593875 36:0.01432206 37:0.2558591 38:0.34731658 39:6.4440547e-06 40:0.18623443 41:0.0025101218 42:0.016243635 43:0.31748157 44:9.1339875e-06 45:0.0030057316 
-0 -0.083655963953610968 -0 0 0 1:0.24632137 2:0.71287272 3:7.6682602e-05 4:0.38479336 5:0.27969651 6:0.0070519637 7:0.24825401 8:0.59155573 9:2.1406715e-05 10:0.50649569 11:0.0038812257 12:0.82466656 13:0.56595655 14:2.9536861e-05 15:0.0042026293 16:0.52244333 17:0.57902406 18:4.1183538e-05 19:0.92396295 20:0.46063047 21:0.0059330251 22:0.41482799 23:0.52432514 24:3.401613e-05 25:0.31265827 26:0.0053737719 27:0.49505114 28:0.65269445 29:9.9732873e-05 30:0.0090775568 31:0.01281995 32:0.17048056 33:0.0016543069 34:0.060607659 35:0.020343853 36:0.040654767 37:0.25010556 38:0.041153927 39:0.00023416001 40:0.96856894 41:0.015286655 42:0.0058900263 43:0.10215618 44:8.2715318e-05 45:0.009093287 
-0 -0 -0 0 0.36385835244598275 1:0.24651464 2:0.74147942 3:7.1666881e-05 4:0.40143034 5:0.25062238 6:0.006767224 7:0.24790744 8:0.6279213 9:1.896907e-05 10:0.471612 11:0.0036140446 12:0.82474603 13:0.5242789 14:2.6530961e-05 15:0.0039279934 16:0.52229932 17:0.57339151 18:4.6415516e-05 19:0.93966448 20:0.73746792 21:0.006327519 22:0.41486977 23:0.54121003 24:3.5544032e-05 25:0.60046372 26:0.0055029519 27:0.49170678 28:0.69202031 29:8.3400451e-05 30:0.0082268084 31:0.015598314 32:0.26424835 33:0.0015530829 34:0.003903463 35:0.0088175874 36:0.039390744 37:0.24825211 38:0.21606535 39:0.00028232841 40:0.98421874 41:0.016787022 42:0.0041873695 43:0.26374246 44:8.6154274e-05 45:0.0092804237 
-0 -0 -0 0.30829400786482009 0 1:0.24546848 2:0.17717057 3:8.6296088e-05 4:0.86725861 5:0.31621302 6:0.0075739056 7:0.24717138 8:0.30348611 9:1.4855175e-05 10:0.55190756 11:0.0031222981 12:0.8271798 13:0.57400152 14:2.1391634e-05 15:0.0034225086 16:0.5188972 17:0.28034864 18:2.2261394e-05 19:0.35060198 20:0.06207526 21:0.0042401028 22:0.4093675 23:0.28194741 24:2.1940597e-05 25:0.78542198 26:0.0042297959 27:0.4944693 28:0.14941216 29:7.8081911e-05 30:0.0079322273 31:0.012533799 32:0.19943199 33:2.4522044e-05 34:0.8895813 35:0.64831032 36:0.0049329167 37:0.25725171 38:0.31139413 39:4.8048326e-05 40:0.91551072 41:0.0069159345 42:0.0063233556 43:0.43899388 44:1.7013417e-06 45:0.0013028345 
-0 -0 -0 0 0.31240913367541778 1:0.24469144 2:0.53082094 3:7.3430976e-05 4:0.71562839 5:0.48053445 6:0.0066157247 7:0.24637588 8:0.62972836 9:2.1180627e-05 10:0.4314865 11:0.0037227413 12:0.82703802 13:0.79977992 14:4.6841808e-05 15:0.0053761812 16:0.52327964 17:0.49689394 18:3.3381433e-05 19:0.72704105 20:0.77371779 21:0.0051285143 22:0.41151285 23:0.35620644 24:5.7957587e-05 25:0.70100746 26:0.0069315183 27:0.48988486 28:0.25012507 29:0.00024327993 30:0.014227931 31:0.013240111 32:0.13407425 33:0.00098350511 34:0.40029395 35:0.053367307 36:0.030441785 37:0.26480978 38:0.24255969 39:0.00021614665 40:0.80957541 41:0.014264125 42:0.0085769852 43:0.025217357 44:8.5846033e-05 45:0.0089977586 
-0 -0 -0 0 0.25628176055150209 1:0.24409659 2:0.21837818 3:8.1720743e-05 4:0.77500063 5:0.39242993 6:0.007329167 7:0.24680312 8:0.50573193 9:1.5341322e-05 10:0.72296816 11:0.0031835557 12:0.82777654 13:0.68371938 14:2.162249e-05 15:0.0034463406 16:0.52272594 17:0.33517047 18:4.8144728e-05 19:0.30127491 20:0.50131863 21:0.0064529884 22:0.40471518 23:0.54282016 24:3.5457506e-05 25:0.12006764 26:0.005495711 27:0.50076025 28:0.44803084 29:4.4742766e-05 30:0.005799467 31:0.0086392955 32:0.28558238 33:0.00015396604 34:0.44410978 35:0.1011606 36:0.012389369 37:0.2543408 38:0.15360849 39:7.2352517e-05 40:0.84453571 41:0.0084902944 42:0.0086388327 43:0.27317092 44:1.6233913e-05 45:0.0040276162 
-0 -0 -0 0 0.057540826466087686 1:0.24529922 2:0.63932808 3:4.6327724e-06 4:0.61067878 5:0.6317559 6:0.00096339425 7:0.24774713 8:0.56436769 9:1.6482241e-06 10:0.62953565 11:0.00070348882 12:0.82703981 13:0.90581495 14:2.8163291e-06 15:0.00077918488 16:0.5198591 17:0.38112807 18:1.1147406e-06 19:0.68262798 20:0.36774214 21:0.00066431199 22:0.41006903 23:0.76400112 24:2.4334842e-07 25:0.25522136 26:0.0002081089 27:0.49372495 28:0.61597401 29:4.7101155e-06 30:0.0014119437 31:0.0090773403 32:0.1220045 33:1.9261609e-07 34:0.96676024 35:0.72280442 36:0.00042011896 37:0.2549959 38:0.093264931 39:2.2811878e-07 40:0.86960924 41:0.00046200561 42:0.0084829279 43:0.37471416 44:3.0555407e-09 45:5.3774786e-05 
-0 -0 -0 0 0.0056898930650662975 1:0.24710816 2:0.60934408 3:8.8185439e-05 4:0.49427134 5:0.46579915 6:0.0076731493 7:0.24767061 8:0.69357739 9:1.3588758e-05 10:0.46951529 11:0.0029580626 12:0.82596746 13:0.64127133 14:3.3539472e-05 15:0.0045487552 16:0.51787622 17:0.59827868 18:2.9443146e-05 19:0.34788304 20:0.45518319 21:0.0049448824 22:0.41232335 23:0.5025147 24:4.5170228e-05 25:0.72334547 26:0.0062601332 27:0.49096243 28:0.39801581 29:9.9818323e-05 30:0.0090818184 31:0.019467309 32:0.1234567 33:2.7701736e-05 34:0.84516925 35:0.45626967 36:0.0052441906 37:0.27588189 38:0.24294108 39:2.4693167e-05 40:0.81112117 41:0.0049534425 42:0.0073836115 43:0.37994739 44:1.6668364e-06 45:0.0012895398 
-0 -0 -0 0.068740105435441373 0.041365019641993017 1:0.24796656 2:0.67477871 3:6.3405667e-05 4:0.53390926 5:0.49526096 6:0.0062767367 7:0.24763559 8:0.62447696 9:1.0808507e-05 10:0.4328409 11:0.0025697219 12:0.82639749 13:0.65220958 14:3.1050537e-05 15:0.004335971 16:0.51903013 17:0.52352089 18:2.5509595e-05 19:0.19791446 20:0.52435247 21:0.0045709929 22:0.40817463 23:0.39339579 24:5.0667295e-05 25:0.72355681 26:0.0066565833 27:0.49383208 28:0.28782436 29:9.5974299e-05 30:0.0088882834 31:0.019205121 32:0.18742761 33:5.2098709e-05 34:0.43607653 35:0.12810193 36:0.0071989183 37:0.27711006 38:0.31802452 39:2.7157268e-05 40:0.8704599 41:0.0051954867 42:0.0082426912 43:0.36419953 44:8.8951384e-06 45:0.0029809536 
-0 -0 -0.28425371206716438 0 0 1:0.24532366 2:0.65479898 3:4.9691228e-05 4:0.5909766 5:0.5207393 6:0.005390289 7:0.2470016 8:0.74463235 9:7.2551009e-06 10:0.46131494 11:0.0019965324 12:0.82734986 13:0.66465848 14:2.8165547e-05 15:0.0040790391 16:0.51764544 17:0.26184317 18:2.7057248e-05 19:0.13514562 20:0.52161371 21:0.0047212905 22:0.4077927 23:0.31348612 24:4.8954077e-05 25:0.63349525 26:0.0065354287 27:0.49290114 28:0.30340777 29:8.7200271e-05 30:0.0084316171 31:0.018561024 32:0.41100375 33:9.2687584e-05 34:0.31102954 35:0.052241998 36:0.0096084537 37:0.27824425 38:0.22520591 39:2.0811604e-05 40:0.86369242 41:0.00454619 42:0.0095734483 43:0.35781807 44:1.6961314e-05 45:0.0041168949 
-0 -0.031863707440592248 -0 0.24873008176720859 0 1:0.24546666 2:0.60369771 3:4.9108468e-05 4:0.64122326 5:0.52844786 6:0.0053502321 7:0.24710594 8:0.66517372 9:5.7028107e-06 10:0.43878197 11:0.0017056624 12:0.82719694 13:0.62956804 14:2.7424765e-05 15:0.0040111066 16:0.51745026 17:0.2999223 18:2.6139415e-05 19:0.18275986 20:0.52100126 21:0.0046326871 22:0.41134608 23:0.31501994 24:5.2058757e-05 25:0.42539391 26:0.0067534912 27:0.49200631 28:0.42481262 29:0.00010734582 30:0.0094503946 31:0.018021593 32:0.13187153 33:8.9160418e-05 34:0.35609789 35:0.046968956 36:0.0094234909 37:0.2792193 38:0.43105734 39:1.0761683e-05 40:0.81245894 41:0.0032647071 42:0.010829575 43:0.16323845 44:1.5765204e-05 45:0.0039690252 
-0.17521174521885088 -0 -0.25124306995405904 0 0 1:0.24688861 2:0.72754007 3:5.5653282e-05 4:0.56451354 5:0.52286459 6:0.0057881692 7:0.24764721 8:0.73185964 9:5.8216245e-06 10:0.45980048 11:0.0017290984 12:0.82750524 13:0.67461876 14:1.7389805e-05 15:0.0029889775 16:0.51962972 17:0.51226251 18:4.6763032e-05 19:0.26443311 20:0.39426526 21:0.0063529185 22:0.41016804 23:0.42478271 24:5.0736664e-05 25:0.37822161 26:0.0066614457 27:0.488643 28:0.65769546 29:0.00010711541 30:0.0094393062 31:0.01760528 32:0.41498741 33:8.9032141e-05 34:0.19128929 35:0.026442722 36:0.0094166958 37:0.27998438 38:0.69255326 39:6.3951381e-08 40:0.82639634 41:0.00023750461 42:0.011666871 43:0.22986538 44:1.0175627e-05 45:0.0031884078 
-0 -0.10939804038430821 -0 0.17056330508489126 0.20939351641924581 1:0.24621923 2:0.83694942 3:6.8497501e-05 4:0.53897762 5:0.70128053 6:0.0065823919 7:0.24764948 8:0.61139463 9:1.3694296e-05 10:0.78838478 11:0.0029720208 12:0.82680857 13:0.65124815 14:3.8155431e-05 15:0.0049245287 16:0.5238515 17:0.23718037 18:4.7151982e-05 19:0.49104724 20:0.18243748 21:0.0063812354 22:0.41067368 23:0.71110495 24:3.0899108e-05 25:0.34329549 26:0.0051009734 27:0.48300784 28:0.69471425 29:5.7205508e-05 30:0.006666806 31:0.014775416 32:0.30877831 33:0.00016860952 34:0.98998965 35:0.94850372 36:0.012966047 37:0.27290305 38:0.22083495 39:0.00024708003 40:0.96676832 41:0.015703153 42:0.010853043 43:0.23846407 44:8.0792032e-06 45:0.0028408754 
-0 -0 -0 0.10030287361424356 0 1:0.24533753 2:0.73053873 3:7.8152416e-05 4:0.4166205 5:0.41207622 6:0.00713371 7:0.24624111 8:0.59175883 9:1.2473174e-05 10:0.69124797 11:0.0028072352 12:0.82675909 13:0.6479532 14:3.3463519e-05 15:0.0045423741 16:0.5256094 17:0.52792332 18:2.0209461e-05 19:0.39580832 20:0.55498669 21:0.0040186255 22:0.41151545 23:0.56607455 24:2.428212e-05 25:0.6470514 26:0.0044723111 27:0.48582274 28:0.4950732 29:0.0001172149 30:0.0099147234 31:0.017126312 32:0.29094827 33:0.00010688076 34:0.94993883 35:0.90169931 36:0.010319342 37:0.27090602 38:0.23384223 39:0.00030112174 40:0.98972843 41:0.017337259 42:0.0077487231 43:0.26500895 44:1.2481147e-05 45:0.0035313491 
-0.02551684944743432 -0 -0 0 0 1:0.24365551 2:0.77881681 3:2.9367879e-05 4:0.64040649 5:0.6742138 6:0.0038311607 7:0.24489247 8:0.53050597 9:1.235584e-05 10:0.75734188 11:0.0027910057 12:0.8268215 13:0.53883774 14:3.0941818e-05 15:0.004326497 16:0.51998227 17:0.5404564 18:1.9561983e-05 19:0.81253104 20:0.16496613 21:0.0039464541 22:0.40918154 23:0.66610889 24:6.1785211e-06 25:0.37923037 26:0.0020518073 27:0.48909108 28:0.58962577 29:4.1484187e-05 30:0.0055536843 31:0.018439259 32:0.54849512 33:1.6864041e-05 34:0.88463427 35:0.12555703 36:0.0040875194 37:0.2559425 38:0.34974905 39:4.992258e-06 40:0.42448631 41:0.0022185442 42:0.00082520286 43:0.48074108 44:3.6894399e-07 45:0.0006058872 
-0.039376330383660008 -0 -0 0 0 1:0.24516844 2:0.80633051 3:8.7274469e-05 4:0.57376634 5:0.40563189 6:0.0076254266 7:0.24681901 8:0.64214258 9:1.6768067e-05 10:0.81194548 11:0.0033581543 12:0.82633944 13:0.73464366 14:3.4111096e-05 15:0.0045965624 16:0.52194326 17:0.54342405 18:4.1716581e-05 19:0.49049089 20:0.36703131 21:0.0059743154 22:0.40954229 23:0.52045803 24:4.0431655e-05 25:0.54727407 26:0.0058986449 27:0.49200029 28:0.5449042 29:0.00010424436 30:0.0093001376 31:0.020747294 32:0.43521812 33:3.5035673e-16 34:0.35547683 35:0.332167 36:9.1293096e-12 37:0.26582825 38:0.16323751 39:2.1478881e-05 40:0.43681517 41:0.0046187483 42:8.589033e-05 43:0.93704114 44:2.2321399e-09 45:4.5746921e-05 
-0.021570305097229302 -0 -0 0 0 1:0.24460838 2:0.70857306 3:3.4641151e-05 4:0.29577148 5:0.26026214 6:0.0042734552 7:0.24647393 8:0.50592423 9:6.075024e-06 10:0.80203419 11:0.0017783757 12:0.82633182 13:0.57732621 14:2.2784584e-05 15:0.0035645776 16:0.52173358 17:0.55588821 18:1.2721841e-05 19:0.89010608 20:0.33574566 21:0.0030968008 22:0.40886651 23:0.61311026 24:1.2629182e-05 25:0.43068342 26:0.0031067032 27:0.49382607 28:0.57491739 29:3.5180644e-05 30:0.0050497932 31:0.020734356 32:0.43521779 33:1.3663976e-16 34:0.6221622 35:1 36:3.5604344e-12 37:0.25894887 38:0.21149835 39:3.2851542e-06 40:0.62205852 41:0.001796714 43:0.39672222 
-0.49799793208556908 -0 -0 0 0 1:0.24346108 2:0.43176793 3:2.7966628e-05 4:0.61936781 5:0.30449587 6:0.003707801 7:0.24739449 8:0.60151253 9:1.1226766e-06 10:0.54771409 11:0.00051985493 12:0.82598646 13:0.69506723 14:8.8742278e-06 15:0.0018823358 16:0.5202513 17:0.40663219 18:8.292019e-06 19:0.20775357 20:0.86495827 21:0.0024177276 22:0.40976078 23:0.56138312 24:5.0803258e-06 25:0.094862193 26:0.0018246322 27:0.49117367 28:0.64255651 29:1.455275e-05 30:0.0029733834 31:0.016745126 32:0.3253373 33:5.6446016e-06 34:0.85759001 35:0.026966378 36:0.0023567709 37:0.26303992 38:0.2181301 39:4.8123988e-07 40:0.27554294 41:0.00067802355 42:0.0048450119 43:0.30498476 44:1.8584103e-07 45:0.00042957296 
-0 -0 -0 0.2011797919441648 0 1:0.24395226 2:0.51696433 3:3.2638648e-05 4:0.62700332 5:0.23775278 6:0.0041093105 7:0.24842221 8:0.77893483 9:1.8342885e-06 10:0.33138055 11:0.00076341125 12:0.82586221 13:0.7304944 14:7.8052554e-06 15:0.0017159738 16:0.51919102 17:0.49952988 18:6.4559799e-06 19:0.30259779 20:0.68070006 21:0.0020846412 22:0.40918492 23:0.49130141 24:7.8102261e-06 25:0.088910424 26:0.0023559494 27:0.49429956 28:0.27432762 29:3.3265854e-05 30:0.0048881458 31:0.016727406 32:0.32185524 33:3.5106644e-06 34:0.95841049 35:0.925829 36:0.0018546217 37:0.2651738 38:0.2356126 39:3.2570587e-05 40:0.99547833 41:0.0056912935 42:0.0056512974 43:0.2493294 44:1.607916e-06 45:0.0012665159 
-0 -0 -0 0.18154436496964341 0 1:0.2441798 2:0.45778313 3:2.2047916e-05 4:0.84041091 5:0.41692298 6:0.0031538398 7:0.2486686 8:0.66393101 9:3.4246396e-06 10:0.34752405 11:0.0012045257 12:0.8257304 13:0.82711729 14:3.4456389e-06 15:0.00091810667 16:0.51931762 17:0.52879035 18:4.284631e-06 19:0.57241744 20:0.33512099 21:0.0016245975 22:0.40982514 23:0.41277701 24:6.9069861e-06 25:0.12870592 26:0.0021918693 27:0.49318403 28:0.41799163 29:3.1399067e-05 30:0.0047261327 31:0.016988174 32:0.29517618 33:1.1887452e-06 34:0.90867951 35:0.86184044 36:0.0010712964 37:0.26775325 38:0.320079 39:1.6943835e-05 40:0.9949313 41:0.0041005011 42:0.0063861055 43:0.36753314 44:9.9827674e-07 45:0.00099761746 
-0 -0 -0 0 0.033065165319481969 1:0.24428262 2:0.36423852 3:2.7194605e-05 4:0.84940191 5:0.45174447 6:0.0036386685 7:0.24842118 8:0.52469382 9:3.8642386e-06 10:0.44695451 11:0.0013104172 12:0.8255105 13:0.88197043 14:6.4898553e-06 15:0.0014982869 16:0.51946004 17:0.58249783 18:4.7917162e-06 19:0.52894589 20:0.35235954 21:0.0017404747 22:0.41120042 23:0.5417809 24:3.7086928e-06 25:0.19636487 26:0.0015047237 27:0.49151475 28:0.48982573 29:2.1556523e-05 30:0.0037813491 31:0.01706596 32:0.42956574 33:7.9404467e-07 34:0.91404763 35:0.80830331 36:0.00087212627 37:0.268627 38:0.46309582 39:3.3878342e-06 40:0.9764819 41:0.001824821 42:0.0066445208 43:0.37353959 44:1.4624171e-07 45:0.00038089601 
-0.38495968335845171 -0 -0 0 0 1:0.24364931 2:0.36095807 3:5.68196e-05 4:0.77038178 5:0.17392753 6:0.0058636294 7:0.24818466 8:0.69587323 9:2.9277817e-06 10:0.36027471 11:0.0010777479 12:0.82537869 13:0.40005384 14:2.8528713e-05 15:0.0041120382 16:0.52036207 17:0.41776989 18:1.3274322e-05 19:0.7587126 20:0.52238281 21:0.0031727166 22:0.4105094 23:0.47029594 24:1.1637584e-05 25:0.85688578 26:0.0029656086 27:0.48937197 28:0.48555295 29:4.8996957e-05 30:0.0061075026 31:0.016006291 32:0.31347011 33:1.3477005e-05 34:0.95122385 35:0.16733005 36:0.0036520355 37:0.26545649 38:0.27874547 39:5.2394297e-06 40:0.36182819 41:0.0022731877 42:0.0063699118 43:0.34700342 44:1.4795787e-07 45:0.00038313329 
-0 -0 -0.43085582176906378 0 0 1:0.24318718 2:0.77121155 3:7.1625381e-06 4:0.44171959 5:0.53694202 6:0.001372974 7:0.24587646 8:0.78137804 9:2.238929e-06 10:0.64049465 11:0.0008864852 12:0.82465514 13:0.79860532 14:6.0478179e-06 15:0.0014213958 16:0.52137487 17:0.73053117 18:8.9445005e-07 19:0.77398463 20:0.37812361 21:0.00056612528 22:0.41175596 23:0.65020101 24:1.2243795e-06 25:0.32376868 26:0.00072592411 27:0.48755823 28:0.730344 29:2.5158069e-06 30:0.00089282853 31:0.01771305 32:0.44230858 33:4.7003257e-07 34:0.96558384 35:0.93994311 36:0.0006666816 37:0.27274123 38:0.35795472 39:4.7959893e-06 40:0.99670914 41:0.0021741833 42:0.0076341328 43:0.33908682 44:2.4883427e-07 45:0.00049731277 
-0 -0 -0.067251590810036607 0 0 1:0.24293136 2:0.85810196 3:5.6192755e-06 4:0.49906073 5:0.55018323 6:0.0011296376 7:0.2453141 8:0.73999856 9:1.9551895e-06 10:0.63679208 11:0.00080116213 12:0.82454529 13:0.90553279 14:2.3244092e-06 15:0.00066416253 16:0.52140652 17:0.84813825 18:3.9665417e-07 19:0.61551973 20:0.35179972 21:0.00030150162 22:0.41194904 23:0.61316081 24:8.2402008e-07 25:0.35383195 26:0.00054661061 27:0.48780301 28:0.72870402 29:2.0445983e-06 30:0.00076111182 31:0.017608897 32:0.41862713 33:1.405185e-06 34:0.97866735 35:0.95118674 36:0.0011663938 37:0.27200179 38:0.3574273 39:7.6039681e-06 40:0.99473516 41:0.002741735 42:0.0074452169 43:0.33791757 44:3.0385624e-07 45:0.00054971128 
-0 -0 -0.31026421316588304 0 0 1:0.24274233 2:0.83120403 3:4.7165497e-06 4:0.37855521 5:0.53106912 6:0.00097788126 7:0.2456109 8:0.83189939 9:1.3743403e-06 10:0.65955164 11:0.0006107304 12:0.82473304 13:0.90272244 14:2.1101419e-06 15:0.00061203004 16:0.5205256 17:0.86649346 18:4.9284228e-07 19:0.69411741 20:0.28806843 21:0.00035895526 22:0.41081765 23:0.53781394 24:3.7706491e-07 25:0.3828117 26:0.00029918236 27:0.49026279 28:0.64162171 29:4.0064518e-06 30:0.0012587134 31:0.016996926 32:0.44784634 33:1.7418489e-06 34:0.99556671 35:0.98544711 36:0.0013007668 37:0.26840143 38:0.38633801 39:6.4011868e-06 40:0.99772756 41:0.0025142629 42:0.006619372 43:0.37370367 44:1.9063038e-07 45:0.00043509248 
-0 -0 -0.44468027916473857 0 0 1:0.24394163 2:0.65561909 3:2.8222144e-05 4:0.49130423 5:0.44761355 6:0.0037304958 7:0.24696871 8:0.74258748 9:3.4978386e-06 10:0.79556104 11:0.0012225387 12:0.82562558 13:0.70414713 14:1.3404533e-05 15:0.0025100293 16:0.52129417 17:0.63011668 18:3.8624972e-06 19:0.71635595 20:0.29311418 21:0.0015230962 22:0.41136776 23:0.60838271 24:3.7887553e-06 25:0.43059665 26:0.0015247993 27:0.48825083 28:0.66944472 29:1.4917075e-05 30:0.0030194539 31:0.017906651 32:0.2803124 33:1.6049796e-06 34:0.96466309 35:0.90779343 36:0.0012478583 37:0.27790714 38:0.34671611 39:6.1152735e-06 40:0.98638927 41:0.0024571143 42:0.0094252793 43:0.39179499 44:2.2406404e-07 45:0.00047183398 
-0 -0 -0.091259053500987106 0 0 1:0.24480261 2:0.83465789 3:2.6460661e-06 4:0.34387475 5:0.68519271 6:0.00059563149 7:0.2503389 8:0.81469256 9:1.2137683e-06 10:0.66418453 11:0.00055344169 12:0.82644704 13:0.80906631 14:1.8486699e-06 15:0.00054654363 16:0.52039741 17:0.57885235 18:6.3862271e-07 19:0.81291773 20:0.16374306 21:0.00043941003 22:0.41080884 23:0.70228337 24:5.7561508e-07 25:0.22017108 26:0.00041754577 27:0.49050997 28:0.71412123 29:4.6191258e-06 30:0.0013926903 31:0.016288804 32:0.41180895 33:3.859708e-07 34:0.99667662 35:0.98855038 36:0.00060238442 37:0.26806442 38:0.32019512 39:1.3778688e-06 40:0.99822731 41:0.0011580688 42:0.0070994975 43:0.28673979 44:4.0116072e-08 45:0.00019877284 
-0 -0 -0 -0 10 1:0.24508113 2:0.5051594 3:0.055877476 4:0.76089541 5:0.74161921 6:0.23491631 7:0.23478997 8:0.37248185 9:0.028679216 10:0.68752427 11:0.16866883 12:0.83136192 13:0.74954095 14:0.026654817 15:0.16207856 16:0.62203963 17:0.15590229 18:0.18590272 19:0.075788065 20:0.8237931 21:0.43087581 22:0.3140665 23:0.44694664 24:0.13165076 25:0.36381889 26:0.36253079 27:0.5039184 28:0.49147865 29:0.035418331 30:0.18741642 31:0.82691505 32:0.47378723 33:0.011084662 34:0.45328945 35:0.39702145 36:0.10526655 37:0.87514482 38:0.11624271 39:0.019020213 40:0.98830174 41:0.1379001 42:0.26562734 43:0.072375263 44:0.045477376 45:0.21325305 
-0 -0 -0 -0 10 1:0.25920819 2:0.42282294 3:0.05451771 4:0.87269245 5:0.67238774 6:0.23201693 7:0.23614354 8:0.45038044 9:0.040210286 10:0.53918206 11:0.19986976 12:0.83656857 13:0.61603619 14:0.028866048 15:0.16872484 16:0.62707199 17:0.17234358 18:0.13904681 19:0.036327663 20:0.75165829 21:0.37257171 22:0.24272455 23:0.26079061 24:0.15324398 25:0.31302299 26:0.39117133 27:0.46694943 28:0.61611335 29:0.045098657 30:0.21160631 31:0.85602513 32:0.46232892 33:0.027838795 34:0.74961892 35:0.72755151 36:0.16683363 37:0.86186852 38:0.12004817 39:0.013948487 40:0.99632675 41:0.11808971 42:0.28136409 43:0.1159701 44:0.04724948 45:0.21736826 
-0 -0 -0 -0 6.852327439855217 1:0.23824187 2:0.52092287 3:0.036185646 4:0.80637214 5:0.7189282 6:0.18867021 7:0.19854877 8:0.57240439 9:0.015928157 10:0.40054411 11:0.12549149 12:0.82694212 13:0.54035061 14:0.040526109 15:0.20017944 16:0.56243192 17:0.37022123 18:0.076300969 19:0.089480662 20:0.75046598 21:0.27585926 22:0.29294608 23:0.27931963 24:0.071132725 25:0.17412638 26:0.26635475 27:0.4786344 28:0.49809069 29:0.044231012 30:0.20955161 31:0.96938018 32:0.093662183 33:0.02325107 34:0.16062591 35:0.53553965 36:0.15246675 37:0.78992296 38:0.044434388 39:0.0045462646 40:0.79979893 41:0.067411183 42:0.27786445 43:0.18336024 44:0.016887676 45:0.12995127 
